1079 100
you -0.037646055 0.40543503 -0.02578512 0.046019007 -0.1131165 -0.4653649 0.54885346 0.74093336 0.13247027 -0.48252025 0.7360039 -0.08222199 -0.3982793 0.28299353 -0.13405275 0.35875863 0.22155824 0.08459279 -0.4531905 -0.06940837 0.10222643 0.8026467 0.4464193 -0.23309952 0.007943016 0.31264624 -0.1571232 -0.18000427 -0.48798501 -0.18915877 0.026169306 0.18102215 -0.019432828 -1.2994206 -0.073935546 0.060870487 0.3218833 -0.44349036 -0.13526416 -0.0546386 -0.2459367 0.16068043 -0.57251763 -0.41669217 0.8461549 0.40810028 -0.015261406 0.5039652 0.49704364 0.22813757 0.4480003 0.3529721 -0.49584976 -0.15283196 0.5335928 -0.30865064 0.14256807 0.14203575 -0.51097393 0.0145414965 -0.2504963 0.18607427 0.08578553 -0.22854218 -0.0391635 0.39444762 -0.096541025 -0.04943257 -0.45238063 0.531382 0.20827049 0.44696194 0.07951435 -0.15121771 0.4982728 -0.058419403 0.011581727 0.2545677 -0.3087644 -0.28749058 -0.566825 0.009887707 0.17616194 -0.109736115 -0.12289682 -0.30817932 0.23702721 0.21326372 0.056731366 0.4648875 0.57281375 0.3733432 0.5346101 0.005569405 0.80418354 0.08262292 -0.09756059 -0.015403535 -0.10384522 -0.17337388
i -0.5116641 0.40249586 0.44231412 0.4056347 0.3122467 -0.9837538 -0.09948173 0.7808824 -0.47006696 -0.53830796 0.11900446 -0.6103714 -0.3861075 0.7782655 0.376787 0.25247258 0.45716998 0.53162026 -0.0005196016 -0.37296903 0.5579117 -0.03916027 0.5758037 -0.53173816 0.46335593 0.47643736 -0.54547596 0.3929954 -0.22770958 0.275096 0.37187096 0.07147943 -0.080502346 -0.93350595 -0.027953153 -0.0003025244 0.34582475 -0.16926111 0.17627664 -0.3425145 0.47882202 -0.41566685 -0.46369243 -0.28290716 0.109609164 0.24653193 -0.11753456 0.14469366 0.18663952 -0.18752544 0.032203447 -0.6820178 -0.36932173 0.12902601 0.17565289 0.023962907 0.4668382 0.23535271 -0.29519054 0.08172116 -0.12177395 -0.053160958 0.09279565 -0.019553322 -0.009028759 0.8369365 0.6608785 0.2472351 -0.35167763 0.773919 -0.3920232 -0.1765565 0.34012252 0.0879752 0.42703483 -0.016025824 -0.2746117 0.048993446 -0.40643066 -0.58995116 -0.5196756 0.30589962 0.057955466 0.24077818 0.050562568 -0.2911921 0.4101573 -0.28123558 0.20058514 -0.087257676 0.3486428 -0.34522218 -0.14104125 -0.26118374 0.21060546 0.5498146 0.4753454 -0.12671527 -0.12432502 0.30126178
ok -0.021283533 0.12409103 -0.02636458 0.09214169 0.056657746 -0.35361028 0.011884561 0.6408614 -0.1748964 -0.13954031 -0.014619138 -0.38091353 -0.033090442 0.23788604 0.11010673 -0.14358549 0.18612878 -0.102571644 -0.100161925 -0.39907664 0.2217824 0.18541561 0.21144018 -0.16720569 0.07077706 0.06486525 -0.2899891 -0.091843836 -0.25933003 0.10438481 0.31797642 0.007899206 0.04963641 -0.6196809 -0.22655587 0.08875916 0.08336123 -0.22632946 -0.13164328 -0.2897292 -0.005738972 -0.12168979 -0.07264256 -0.057309333 0.3627402 0.07362867 -0.1781391 -0.19024856 0.13350578 0.026678534 0.0041668117 -0.22725673 -0.16355467 -0.046014525 0.08012745 -0.045084655 -0.007442482 -0.045651954 -0.20988545 0.05281259 0.027831465 0.028495686 0.080773994 -0.05803697 -0.21486846 0.36916336 0.10936241 0.23259853 -0.4117306 0.34791857 0.058233432 0.17302088 0.18541187 -0.10813303 0.35974815 0.035620477 0.14286332 0.026636083 -0.17774399 -0.047910895 -0.3552606 -0.09584008 -0.2525867 0.3084307 -0.10633515 -0.15093866 0.09532656 0.13994387 0.16720812 0.014646403 0.3870915 -0.0013112527 0.057337523 0.004062757 0.35087952 0.16326079 0.13706829 -0.026090058 0.06420641 -0.07189355
can 0.19953822 0.3220347 -0.27699703 -0.33836266 0.07983703 -0.7367138 1.0027199 0.97210956 0.49534243 -0.86683387 0.822565 -0.36655435 -0.49579638 0.006369892 -0.151728 0.40626436 0.26801017 -0.71573734 -0.6596631 -0.3580926 0.05354881 1.0025114 0.8076831 -0.12693658 -0.35116562 0.18339448 -0.36099422 -0.0036190904 -0.45084864 -0.019538216 0.49973437 0.27680838 -0.07278379 -1.5251604 -0.5018987 0.2140786 0.45621926 -0.76884174 -0.8982155 0.23120113 -0.17778486 0.262079 0.013780357 -0.4461524 1.6002988 0.17949003 0.56430084 -0.24472146 0.6627527 -0.11105968 0.34364673 0.38292003 -0.20028225 -0.79138637 0.44149122 -0.41034248 0.16046748 0.62718916 -0.30203062 0.1204614 -0.24646811 0.24280185 0.36561534 -0.19772896 0.12888595 0.37507665 -0.5261534 -0.38434646 -0.5819163 0.2882612 0.22546782 0.36017415 0.09231398 0.028172381 0.5402591 -0.46327645 0.091777235 -0.27959535 -0.57964444 -0.13377012 -0.42941114 0.07741709 -0.14597723 -0.008337989 -0.24309862 -0.61932707 0.42067495 0.62563187 -0.1086823 -0.07905838 0.61927515 -0.0036725265 0.6126547 -0.19204679 1.1384232 -0.28430322 0.525202 -0.1033921 -0.49970922 -0.68579143
to -0.13944298 0.06537416 0.06571532 0.035895 -0.09847664 -0.46749616 0.34906512 0.66672605 0.7805442 -0.33115575 0.19162625 -0.39577883 -0.77261746 0.2840873 -0.3513301 0.18050908 0.06726986 -0.61900085 -0.3122619 -0.009690916 -0.327603 0.45624557 0.7897189 0.49271837 -0.16410407 -0.030739186 -0.4796547 0.16635968 -0.56932443 0.108967446 0.84808135 0.17172071 -0.06846979 -1.1655091 -0.09145564 0.003519802 0.18933326 -0.44722307 -0.16869512 -0.25535858 0.008172363 -0.10652941 -0.37370148 -0.33852234 0.63739926 0.24175225 0.06698067 0.28326374 0.67666775 -0.14921473 0.2069368 -0.16676164 0.28735548 -0.57299936 0.17727864 -0.056417402 0.11681414 0.0010377527 -0.5365008 0.27239338 0.020648312 -0.09681882 0.4641371 -0.29611394 0.14319718 0.19846176 -0.014831023 -0.04651093 -0.37891713 0.39562103 0.5502912 0.6669473 0.3608151 -0.20046854 0.4177059 -0.07520505 -0.024144946 -0.27739707 -0.2116992 -0.52109915 -0.73268056 -0.47509587 0.21109538 -0.19847746 -0.45631295 -0.5754043 0.10124291 0.33235893 -0.14075404 0.097640485 0.7619495 -0.09970451 0.28790528 -0.23737013 0.6266787 0.057404425 -0.03247465 0.3104792 -0.30815047 -0.30460617
the -0.092155054 0.04563257 0.10099052 -0.08246272 -0.3001771 -0.20018344 0.1771044 0.7453852 0.8286694 0.10580777 -0.25071034 -0.25696942 -0.7226465 -0.2414694 -0.43278158 -0.16914135 0.13893649 -0.86879 0.07972466 -0.20092396 -0.6008148 0.21365021 0.21093072 0.504465 -0.3561514 0.0044317297 -0.28485516 -0.39988917 -0.36937496 0.2505318 0.81513596 0.13990447 -0.06081685 -0.58474696 -0.044562735 0.37811443 -0.0047551687 -0.34129238 0.29195115 -0.5838804 0.27958247 -0.6079523 -0.2855497 -0.33533525 -0.08116203 0.262706 -0.38731813 0.10419197 0.45139226 0.025721865 0.5053541 -0.23219195 0.6266066 0.01101741 -0.5571926 0.11673629 0.20538713 -0.24774683 -1.0736858 0.27375123 0.24083868 -0.2739207 0.41266465 -0.28606302 0.024732105 0.0076993066 0.20492272 0.0015685394 -0.4008178 -0.15440448 0.32039148 0.7051999 0.29088655 -0.11642965 0.33844626 0.03448466 -0.09743077 0.22061032 -0.059523243 0.22660917 -0.18556523 -0.6034408 0.061724275 -0.18300933 -0.39857963 -0.19148704 -0.1265082 0.40906718 0.045910347 0.016665826 0.98452353 0.39962125 -0.052563615 -0.15792185 0.42425898 0.36779666 -0.23538572 0.013303443 0.18917537 -0.097727224
that -0.07148351 0.058156878 0.1542978 0.084698915 -0.06138944 -0.401503 -0.065589674 0.7248558 0.07368868 -0.18132833 -0.20699868 -0.2863012 -0.28243124 0.23224925 -0.07184579 -0.1568231 0.34331858 -0.04935219 -0.0038392795 -0.46008345 0.07662992 -0.081434034 0.22385712 0.022082096 0.19011095 0.15222307 -0.45159218 -0.11970947 -0.25791502 0.27886194 0.31753942 0.21092665 0.07130852 -0.5653508 -0.13251118 0.053615663 0.018035905 -0.3134165 0.10229273 -0.41104606 0.2570534 -0.34298593 -0.07649853 -0.22971198 0.10464465 0.07562465 -0.22847506 -0.13249567 0.029648772 -0.015888125 0.16877411 -0.41636848 -0.083431266 0.042397242 -0.249211 -0.0740214 0.08571765 -0.08781575 -0.42785218 0.12341433 0.05276051 -0.10496394 0.28118876 -0.062161464 -0.10660966 0.42223504 0.4240614 0.14037088 -0.4846464 0.16459574 -0.0011568808 0.27183664 0.14203574 -0.09781595 0.35080522 0.022801597 -0.04869309 0.14179716 -0.26264226 0.0067299493 -0.20462047 -0.08871863 -0.09865797 0.3280345 -0.11538722 -0.08828255 0.2790336 0.0918985 0.056537725 -0.07990287 0.55776197 -0.05041433 -0.06742758 -0.05108236 0.17546895 0.2934405 0.23665406 -0.03990346 0.10007528 0.20207013
so -0.14238316 0.084214866 0.124247916 0.16878113 0.15403832 -0.28804567 -0.06592642 0.5385432 -0.18414487 -0.038890444 -0.10538019 -0.5145598 -0.10101861 0.31826556 0.096970275 -0.16684969 0.02898686 -0.27230394 0.046992242 -0.40294328 0.11741501 0.10503417 0.29678887 -0.073998556 0.04404589 0.08978723 -0.42163214 -0.07121439 -0.24299185 0.12843591 0.4590122 -0.058029518 0.09341292 -0.33124954 -0.15670887 0.15730457 -0.037654016 -0.13551494 -0.018598562 -0.49039596 0.09402797 -0.25920603 -0.19064909 -0.020201677 0.10027659 0.114195265 -0.2576238 -0.15533264 0.23940605 0.06215564 -0.060962725 -0.45618817 -0.0054599917 0.07480516 -0.14462957 0.07231797 0.1537 -0.15383998 -0.23904254 0.042176824 0.20849669 -0.0570968 0.08010471 0.04246911 -0.26651013 0.34838364 0.2935464 0.36294678 -0.41643658 0.40241924 -0.036008287 0.08944811 0.34327862 -0.1312075 0.2630305 -0.024365032 0.022049645 -0.08347338 -0.11635505 -0.17308708 -0.343948 -0.1493884 -0.33731407 0.24501878 -0.11745227 -0.109171115 0.095800415 0.15722823 0.19258079 0.0054319324 0.33639473 -0.06718848 -0.18651095 0.002731725 0.3317436 0.41300768 0.07464677 0.042378318 0.10836962 -0.07131443
a -0.38931167 0.3186854 0.29717693 0.16994908 0.41677868 0.057335135 -0.059606377 0.3159325 -0.8149636 0.46270752 -0.45409253 -0.7577796 0.123777404 0.14077449 0.4505569 -0.57182926 -0.315951 -0.6433929 0.05985134 -0.83574855 0.16574581 0.14996076 0.60590285 -0.20888686 -0.027150188 0.008988889 -0.46092227 -0.5573837 -0.3290275 0.009694219 0.6437326 -0.45878765 0.31905422 0.48049846 -0.17899808 0.47732574 -0.4915344 0.1685883 0.23605531 -1.1715151 -0.16162014 -0.32092378 -0.06348699 0.3613805 -0.27960214 0.05273704 -0.6118331 -0.39556402 0.47286856 -0.044743117 0.042087063 -0.47560537 0.08240645 0.41364688 -0.48793346 0.2833005 0.5087941 -0.67480505 -0.30102214 -0.28855142 0.35853136 -0.00450777 0.14027311 0.41349533 -0.8714773 0.25178015 0.5821666 0.51850224 -0.6754418 0.49345756 -0.47960833 -0.24141037 0.5366325 0.01803797 0.19645128 0.030257406 -0.030222049 -0.089435264 0.0068765706 -0.023507535 -0.35583895 -0.3737964 -0.42480344 0.407149 0.07115516 0.4090276 0.13914233 0.5532128 0.40319425 0.026438758 0.33784628 0.3416829 -0.23590392 0.17148186 0.94855255 1.0008899 -0.2592101 0.0652895 0.48339266 -0.18514791
and -0.05656862 -0.120125875 0.1630882 -0.08459037 -0.04622812 -0.45003855 0.12069468 0.49101493 0.4097885 -0.2042509 0.1226528 -0.58656853 -0.5752428 0.3309534 -0.084332526 0.24045594 -0.023377253 -0.8906261 -0.311361 -0.44813654 -0.13225493 0.5932779 0.744596 0.27418637 -0.027051423 -0.034344107 -0.5733769 0.059506543 -0.35894462 0.15748073 0.81374776 0.035227496 0.18416499 -0.65639704 -0.5918433 0.119003154 0.056224186 -0.3427921 -0.20604326 -0.4074139 -0.22002432 0.013464377 0.027829234 -0.12671314 0.5951772 0.39382136 -0.2999998 -0.23983878 0.9707213 0.07107008 0.0036691127 0.07742465 0.14284472 -0.16549075 0.13965969 -0.008389248 0.31266725 -0.25116885 -0.26687643 0.18795042 0.019191604 0.18595998 0.48127878 0.14983554 -0.22694372 0.273058 -0.34833944 -0.35840315 -0.29143742 0.23053007 0.52838147 0.53921735 0.33628932 -0.32890797 0.30429107 -0.25075862 0.2871188 -0.51710296 -0.033594236 -0.09081189 -0.3427529 -0.5284875 -0.2345448 0.117585815 -0.19585072 -0.26612025 -0.066071875 0.6022816 -0.05439862 0.19436736 0.5066802 0.2448494 0.12139747 -0.13232464 0.6390606 0.22325633 -0.27597192 0.44311458 -0.34090477 -0.22258121
oh -0.03638781 0.10984364 0.10813629 0.08788254 0.0035342989 -0.5478171 -0.11405297 0.6850694 -0.26329088 -0.19228661 -0.15230665 -0.4906223 -0.0212032 0.28991383 0.10813284 -0.19938591 0.3001076 0.010755792 -0.10271955 -0.46828836 0.35810483 0.0057807644 0.29415193 -0.20470962 0.17381813 0.056809336 -0.33999437 -0.011294803 -0.19625264 0.20060962 0.30378535 0.07303319 0.089864925 -0.5961321 -0.26326367 0.08529627 0.13370243 -0.25817823 -0.16379236 -0.33407596 0.19069652 -0.17958464 0.024527267 -0.07413475 0.2697276 -0.078014456 -0.1776968 -0.30115074 0.06289642 -0.14511782 -0.039321646 -0.415533 -0.14216666 -0.08148054 -0.010818092 -0.026751151 0.008767882 -0.048524257 -0.160033 0.07283284 0.02852815 -0.061611656 0.07097264 -0.07251145 -0.14796585 0.4362257 0.17954193 0.2226068 -0.4355646 0.32159966 -0.025930075 0.11065638 0.19466391 -0.016092582 0.3931736 0.12080436 0.13797504 -0.056872517 -0.29789758 -0.022645721 -0.3037899 -0.036142945 -0.20644571 0.45662844 -0.17944127 -0.14594106 0.14859655 0.06944349 0.14184944 -0.1294555 0.4775244 -0.14250422 -0.03822496 -0.084731944 0.17496155 0.17824547 0.29115832 -0.10709808 0.046916183 0.050884545
alright 0.050536692 0.09521077 -0.027472246 0.024358455 0.05328102 -0.31235787 0.08603804 0.55149454 -0.059916418 -0.17958647 0.14114709 -0.37930763 -0.10047537 0.21749802 0.040215783 -0.08638666 0.13757206 -0.26834345 -0.18562482 -0.27617157 0.10583685 0.32730743 0.39039055 -0.14599186 -0.051696204 0.061831508 -0.28191218 -0.0940745 -0.25671434 0.061153457 0.32766065 -0.022888929 0.0674504 -0.6518439 -0.27488995 0.094136305 0.020035809 -0.227335 -0.20755962 -0.29173803 -0.13248804 0.00969025 -0.07953319 -0.06682838 0.47937116 0.08888381 -0.07845296 -0.19002777 0.25759125 0.05902865 -0.014864805 -0.1785341 -0.15700877 -0.13014844 0.16451068 -0.08479987 0.045568895 -0.013198772 -0.17643473 -0.02635158 0.035812113 0.023917412 0.098914206 -0.04831781 -0.199824 0.34477973 -0.03804364 0.17357875 -0.43617785 0.3664678 0.12565935 0.23616384 0.2691977 -0.14472565 0.32198063 0.009306719 0.15819162 -0.07686194 -0.1942557 -0.09466826 -0.3591761 -0.1012167 -0.262578 0.23942453 -0.07726107 -0.20575903 0.058682233 0.21062602 0.07486467 0.11378947 0.39680976 0.0059291082 0.13646406 -0.002764078 0.42670232 0.09762845 0.067794494 0.13010916 -0.08170249 -0.20891614
this -0.04093229 -0.13190606 0.3616727 0.029479546 -0.15271658 -0.2725445 -0.2790286 0.7029875 0.30654922 0.004005492 -0.5966989 -0.50662893 -0.410708 0.12592913 -0.09175179 -0.543258 0.23263904 -0.38460743 0.030119922 -0.67922914 -0.09330912 -0.17600118 0.15223886 0.44257408 0.12749895 -0.0057612355 -0.57031476 -0.070472226 -0.27796468 0.43167567 0.39464837 0.19595595 0.24364956 -0.3055178 -0.31994748 0.01925314 -0.17376445 -0.33703724 0.17792 -0.5813469 0.22562052 -0.37969485 0.09753085 0.007801133 -0.1896076 -0.035379294 -0.4484929 -0.4000993 0.08265028 0.1219516 0.18250737 -0.5709906 0.3409914 -0.044629812 -0.38931578 0.08586005 0.02714037 -0.3355744 -0.37198532 0.20100951 0.21196096 -0.22291587 0.41997615 -0.0068178577 -0.20528153 0.34254465 0.45981163 0.19077374 -0.59454197 0.07316708 0.26819205 0.36656225 0.31109473 -0.19146915 0.3369672 0.21056983 0.1691825 0.012575912 -0.24444889 0.17246552 -0.3054377 -0.29983988 -0.15915999 0.44179767 -0.2393098 0.023817018 0.26017472 0.13990667 -0.03299754 -0.073696174 0.8883693 0.079808734 -0.16066828 -0.033655014 0.17670183 0.43460557 0.04928837 0.13882625 0.19126134 0.22010472
it -0.048384015 0.19171892 0.13887289 0.08355627 -0.03138116 -0.38717884 -0.17841008 0.65569395 -0.3492142 -0.099583864 -0.43769294 -0.2945589 -0.16393745 0.30331075 0.11707672 -0.18057178 0.31775364 0.041791033 -0.11103712 -0.7733891 0.3373223 -0.24200225 0.24715552 -0.17883435 0.33819872 -0.02552712 -0.5241412 -0.32461822 -0.20284238 0.29257962 0.31365773 0.06968007 0.13028795 -0.3880192 -0.21068686 0.13002779 -0.06431908 -0.18831772 0.14192455 -0.57060677 0.21416979 -0.36700097 0.22160107 -0.00871999 0.091794685 -0.011929803 -0.39556167 -0.45536822 0.12589788 -0.17468454 0.089531876 -0.32886758 -0.121871635 0.19902357 -0.2734251 0.027147643 0.15494788 -0.27943772 -0.31575724 0.09988815 0.16314472 0.03748579 0.21855463 0.14730681 -0.20426024 0.44251564 0.4703331 0.09996688 -0.41529474 0.07444787 -0.20965956 -0.029156353 -0.019740546 -0.06328961 0.40031394 0.085910596 -0.033517577 0.11898173 -0.14777303 0.05380353 -0.1359517 -0.10348504 -0.22438028 0.5936114 0.007227942 0.17615415 0.41485724 0.29231882 0.16761342 -0.22738269 0.46259677 0.0032919364 -0.16627508 -0.009171835 0.21149243 0.3992172 0.17234647 -0.039609578 0.12333565 0.330557
me 0.24226652 0.48444745 0.012360031 -0.48409578 -0.16673651 -0.7705815 1.0993254 0.89424807 0.347519 -0.9080332 0.7157892 -0.28073767 -0.7790533 -0.18544582 -0.12955691 0.39718714 0.34344918 -0.57440376 -0.9397285 -0.62425035 0.19136141 1.1026214 0.81971633 -0.18785533 -0.25013915 0.2671665 -0.27272227 -0.32964414 -0.44540724 -0.015275858 -0.07490141 0.17108163 0.02211644 -1.439877 -0.8016519 -0.046598278 0.41396827 -0.7319562 -0.681443 0.15214139 -0.2145952 0.31972647 0.23041862 -0.32682195 1.6246495 0.2955231 0.2697471 -0.43926686 0.99504936 0.03433039 0.5472656 0.6667497 -0.23185788 -0.6620226 0.4124778 -0.40905252 0.36553162 0.3040213 -0.35618967 0.050216813 -0.4699892 0.27941462 0.32773867 -0.065051965 0.018780094 0.5614205 -0.604256 -0.71485096 -0.57299054 0.20519064 0.004486827 0.26572222 0.13154234 0.027631067 0.47982618 -0.17846006 0.38737094 -0.05619961 -0.5497831 0.23661059 -0.2027795 -0.0021514243 -0.05699727 0.031585995 -0.085779436 -0.2500078 0.54484 0.7260016 -0.19804855 0.01893989 0.83666134 0.53442156 0.77547747 -0.052538846 1.3052164 -0.16059677 0.21866027 0.017821047 -0.6383616 -0.38593635
is -0.18694565 0.09584437 -0.23692471 0.18147229 -0.28028184 -0.3430216 0.1442648 0.8575562 -0.2769765 -0.019324731 -0.26264712 -0.14084946 -0.19883971 0.15821245 -0.25016356 -0.31292856 0.18484229 0.049849883 0.1657304 -0.41113722 0.1255878 -0.33400586 -0.28655764 -0.07130821 0.038312864 -0.18411183 -0.31069842 -0.12829867 -0.35630357 -0.0711083 -0.10740644 0.017860329 -0.124466285 -0.27825838 0.14107814 0.5014375 0.036627576 -0.5090654 -0.12221256 -0.22861418 0.48441622 -0.5472848 0.008860143 0.14884044 0.3995155 -0.09756948 -0.499737 -0.47190237 0.12479155 -0.11420575 0.12259183 -0.18795423 0.36264643 0.21717726 -0.32634443 0.26141956 -0.096980825 -0.0715531 -0.52625096 0.2662947 0.1350805 -0.20477371 0.0059928647 -0.2773917 -0.3216319 0.059196282 0.3722964 0.3408601 -0.23797435 0.031115254 -0.4369179 0.10141824 0.056376122 -0.05418628 0.45561898 0.56099266 -0.117901705 0.19519232 -0.2322463 0.2526298 -0.21861611 -0.04738571 -0.32008383 0.6644912 -0.4011357 0.14833611 0.109953776 0.09350281 0.27758208 -0.12678535 0.29240343 0.18893696 -0.1891627 0.14082198 0.20303734 0.18966556 0.16795777 -0.21656683 0.3613222 0.21752113
go 0.1680648 -0.22941178 0.1474674 0.19177873 0.015836874 -0.42568657 -0.2440238 0.7851194 0.6998117 -0.22043063 0.036900718 -0.8545405 -0.32574776 0.48699975 -0.2369227 0.12269435 -0.056483205 -0.746464 -0.20238046 -0.309405 -0.08695102 0.5613525 0.47580877 0.552304 -0.020261955 0.08001856 -0.46455222 -0.090933576 -0.38911587 0.3131065 0.6855219 0.0976955 0.02747419 -1.0453019 -0.58598024 0.105524346 0.12825653 -0.46219325 -0.3509332 -0.3831677 -0.13134791 -0.10079341 -0.020086573 -0.21277541 0.6383969 0.29084983 -0.26626095 -0.2253692 0.55370766 0.12959662 -0.24400473 -0.51969945 0.1440178 -0.35437337 0.24449061 -0.080466844 -0.1181204 -0.2557144 -0.16161978 0.28580102 0.36756024 -0.027541012 0.4291949 0.061737593 0.16955249 0.33686718 -0.38229105 0.24450222 -0.32610625 0.4987345 0.89222085 0.6515635 0.4374318 -0.570192 0.5630429 -0.17317198 0.40611792 -0.7081927 0.122613296 -0.26611117 -0.51294583 -0.6640074 -0.559167 -0.08181291 -0.31953615 -0.5358653 -0.012209923 0.25153232 -0.043774173 0.038798183 0.9126467 -0.05250622 0.083681986 0.11974665 0.19246326 0.20799723 -0.30489403 0.47599408 -0.5271171 -0.19890192
your 0.21211833 0.42107558 -0.09350659 -0.5007008 -0.20802629 -0.22659697 1.125625 0.7083765 0.079462804 -0.38835186 0.41517225 0.03190428 -0.36316463 -0.4700294 0.037072644 0.010790821 0.20973447 -0.5452487 -0.5451515 -1.0192178 -0.06500186 0.6491628 0.041823443 -0.23562846 -0.38636497 0.08968663 -0.14758612 -0.58451647 -0.5691286 -0.24867584 -0.106259465 0.18262431 0.15381993 -0.7472602 -0.36864725 0.36306345 -0.06723394 -0.6528808 -0.36214998 -0.032176815 -0.25387472 -0.028666785 0.2868849 0.18038496 1.09132 0.1273928 -0.30015168 -0.69895774 0.79562104 0.3592408 0.9266809 1.2030439 0.17066917 -0.0592478 0.17871967 -0.11741983 0.33191484 0.12710066 -0.6659513 0.048819855 -0.37075004 0.31061342 0.08714927 0.07318928 -0.6334039 0.2702149 -0.31942353 -0.6984372 -0.19087972 -0.42991853 -0.33692113 0.16597287 -0.10149214 0.30925363 0.50242126 0.30941984 0.32902172 0.5986191 -0.3024726 0.9427304 -0.11968321 0.22452378 -0.015606353 0.22810629 0.040135335 0.46412337 0.49004304 0.8893585 0.17348905 0.39388803 0.7763512 1.1000501 0.61980313 0.17697617 1.4233679 0.15130858 -0.11364635 -0.1935288 0.019773696 -0.2746537
gonna -0.13394196 -0.06639136 0.34109572 0.20270805 0.059671056 -0.19131085 -0.23420899 0.49511766 -0.005436538 0.02029128 -0.2712933 -0.7593925 -0.17732434 0.48389703 0.018872485 -0.2818426 -0.10149995 -0.58557487 -0.15224735 -0.5261879 -0.06330271 0.0011578073 0.45946342 0.3717455 0.15433893 -0.15136687 -0.5688341 -0.028420534 -0.34919864 0.034768537 0.5960703 0.0049449457 0.22920932 -0.14517425 -0.3862641 0.18454178 -0.16058435 -0.17955641 0.07851209 -0.6689382 -0.07786629 -0.21948434 0.11038015 0.22692567 0.06320647 0.061857045 -0.6155146 -0.21900983 0.45437202 0.18626462 -0.17302483 -0.55235946 0.122355625 -0.018372824 -0.14808747 0.22539222 0.13878901 -0.39610142 -0.01999436 0.07108284 0.38187185 -0.008365453 0.4091949 0.2573386 -0.4404449 0.3079091 0.3939237 0.35686395 -0.3780112 0.40800935 0.38831285 0.25160396 0.43476143 -0.3078645 0.41186976 0.19872366 0.21885644 -0.3408183 -0.0069183013 -0.19334678 -0.5918417 -0.416366 -0.36035675 0.2729592 -0.14204974 0.10236235 0.17150687 0.36146718 0.05269982 0.09148162 0.5475571 0.061091132 -0.19074447 0.23342305 0.42066163 0.5364442 -0.27096024 0.34147274 0.060789086 -0.054805424
here 0.17029195 0.013082086 0.08919229 0.112821594 -0.14921425 -0.11097146 0.11334334 0.5284218 0.5254421 -0.06191277 -0.089102164 -0.42992893 -0.28698346 0.12444511 -0.20798993 -0.23046479 0.23068029 -0.7916902 -0.3261556 -0.2340006 -0.30202448 0.39176306 0.28860623 0.37194452 -0.23581214 -0.08754745 -0.42260745 -0.3144819 -0.32487306 0.2417373 0.7141746 -0.022810731 0.073093794 -0.7227979 -0.4396004 0.14874087 0.012663801 -0.32327983 -0.053372957 -0.48236075 -0.17064922 -0.067446254 -0.05858334 -0.031415977 0.26665667 0.21982098 -0.38023388 -0.24434756 0.42301083 0.09918755 0.06785988 -0.28759697 0.14999399 -0.31633902 0.08811892 0.103450775 0.076986596 -0.23648193 -0.43578017 0.1422043 0.11780194 -0.09879574 0.3002522 -0.124263555 -0.055784814 0.22854447 -0.17702891 0.046992704 -0.47783497 0.15165628 0.59866905 0.68744475 0.24385206 -0.3088919 0.37702116 0.025037294 0.22789992 -0.078791186 0.005093717 -0.027722713 -0.46052483 -0.52459145 -0.13021854 0.13433889 -0.14087881 -0.16979174 0.04874895 0.4236859 -0.036913626 0.19589631 0.8994895 0.16916908 0.09727982 0.06289708 0.28745538 0.059330735 -0.27568159 0.43812072 -0.013127409 -0.14314772
on -0.022796193 -0.11921511 -0.0019039552 0.23855299 -0.1710764 0.00820068 0.19788678 0.59752685 0.35692883 0.0905119 -0.14374591 -0.31958586 -0.20859157 0.010123553 -0.3114136 -0.3696819 -0.0703128 -0.71081793 -0.1676139 -0.687201 -0.26095405 -0.10703537 -0.28405532 0.6030773 -0.1930599 -0.30761594 -0.3700887 -0.20824675 -0.63795984 -0.2416099 0.20615886 0.036249425 0.1440919 -0.025119063 -0.14148185 0.44168824 -0.068988994 -0.4405685 -0.16433455 -0.29169917 0.003587939 -0.36975384 0.05985449 0.40832397 0.26762697 -0.047259178 -0.81374943 -0.5636669 0.56825566 0.4466926 0.40790114 0.13166457 0.5602059 -0.016341452 -0.33326676 0.46812207 0.0026233678 -0.18246885 -0.6629329 0.16886517 0.22008526 -0.0013144705 0.44478703 -0.031721465 -0.6886593 -0.010969783 0.17488457 -0.021395389 -0.15785551 -0.15796047 0.12696071 0.3756926 0.0068068416 -0.10072132 0.5489503 0.5675084 0.049697682 0.17416373 -0.057097185 0.42759663 -0.43063572 -0.24956477 -0.2376472 0.24991153 -0.51207495 0.4292959 0.28675213 0.5209982 0.16350982 0.3088248 0.5063611 0.6879599 -0.019553095 0.46021736 0.5970048 0.28364038 -0.30068538 0.12654135 0.11690753 0.025318174
there 0.1923386 -0.1307101 0.06822169 0.19391523 -0.26680106 -0.13162474 -0.20853353 0.6445457 0.36084995 0.010290922 -0.16518779 -0.33751485 -0.046965092 0.26614302 -0.24352577 -0.2457795 0.36799744 -0.41365486 -0.21561232 -0.21780384 -0.08527681 0.08111493 0.085986875 0.27131525 0.005862727 -0.033524342 -0.3898973 -0.27308744 -0.2589518 0.25542554 0.57926095 0.06449721 0.12393 -0.7609493 -0.24154738 0.00944194 0.069843866 -0.36734986 -0.004076364 -0.41737822 -0.024632769 -0.18745813 -0.024914121 -0.08204028 0.17275937 0.12164967 -0.47725174 -0.18673404 0.12274353 0.16835955 0.021697115 -0.38191947 -0.11817091 -0.13336603 -0.041942388 -0.015956888 -0.09693028 -0.28068328 -0.37566406 0.1286464 0.13206321 -0.09605205 0.221183 -0.098613925 -0.1321548 0.33764154 0.11363875 0.3065895 -0.49908465 0.2234612 0.5970648 0.6790213 0.17181842 -0.31710103 0.42478484 0.102495074 0.25628716 0.058566786 0.036009327 0.11463054 -0.47500977 -0.4515548 -0.16321929 0.32731035 -0.20000479 -0.10035335 0.030676456 0.17728749 0.009067024 0.23786439 0.81439734 0.01065622 -0.01528185 0.07858619 -0.008546388 0.08396095 -0.18414754 0.3803367 0.056960616 0.10059319
do -0.23383975 0.2202514 -0.23388344 0.3823046 0.38905144 -0.6617964 0.04518071 1.0816232 -0.027377395 -0.3469872 0.35700437 -0.56143725 0.061767105 0.43022692 0.22247063 0.16731279 0.17122865 0.2658758 0.48123968 -0.34850624 0.4247704 0.19196068 -0.3454993 -0.09541637 0.12209609 0.42693874 -0.41764155 0.21877357 -0.22470419 0.09381326 0.21240313 0.15917549 -0.19638908 -1.0116463 0.2349247 0.31085292 0.4049751 -0.43485117 -0.25758073 -0.008572459 0.50727135 -0.52829903 -0.50913864 -0.2553436 0.29213402 0.07936098 0.10369735 0.19267334 -0.34125027 0.009660291 0.07442367 -0.5751163 -0.12588519 0.04346598 0.07820013 -0.094642945 -0.08041466 0.40059018 -0.25654525 0.11791875 0.16920371 -0.09813017 0.15116815 -0.14162982 0.07173201 0.52816194 0.4105248 0.7150139 -0.5235478 0.5835906 -0.20227084 0.062161405 0.18225124 -0.20308101 0.5386682 -0.23690704 -0.20776567 0.05983887 -0.30232042 -0.39302364 -0.67558855 0.30634522 -0.31289414 0.08856164 -0.22229685 -0.5120878 0.36924863 -0.30416718 0.3612323 -0.22358435 0.28443894 -0.44759583 -0.14754394 0.25419447 0.3352041 0.288432 0.6244366 -0.34318182 0.2094716 0.057565093
yeah -0.163922 0.13816634 0.15627271 0.21173611 0.13268732 -0.46895805 -0.23140076 0.72363716 -0.528842 -0.08762029 -0.3811324 -0.5821682 0.029231684 0.36027873 0.20449246 -0.3249222 0.20936006 -0.031320654 0.10712478 -0.60311466 0.41773713 -0.20265234 0.23913181 -0.2811527 0.23555797 0.040123276 -0.43136227 -0.055985104 -0.20066483 0.22228599 0.38001367 -0.0324453 0.061003733 -0.2949644 -0.21364987 0.17384227 -0.018632429 -0.110376514 0.017115256 -0.56885445 0.29115814 -0.36641788 0.021772193 0.001093749 0.07045353 -0.13955902 -0.27054942 -0.36158827 -0.014220295 -0.11753755 -0.12641552 -0.6500015 -0.0990252 0.107250184 -0.25599077 0.06958885 0.085730925 -0.14051196 -0.17838764 0.027003622 0.19975011 -0.09146371 0.057106365 0.011996873 -0.2974567 0.44945127 0.50293326 0.46616876 -0.46788067 0.40897962 -0.23810984 -0.08085786 0.2749545 -0.06708783 0.3862256 0.13638249 0.04062444 -0.039528552 -0.23880808 -0.12044062 -0.28049135 -0.058748707 -0.37092555 0.56632227 -0.09807004 -0.032690093 0.17806868 0.057506025 0.2431162 -0.2782468 0.3562245 -0.2342714 -0.26810077 -0.0068043587 0.18726245 0.436115 0.32243836 -0.12333412 0.21039982 0.14390148
if 0.12157668 0.28559515 -0.11998673 -0.32420084 -0.065336086 -0.7512723 0.8688773 0.8645537 0.3200387 -0.8305105 0.6499063 -0.21957494 -0.57545686 0.18663439 -0.1512325 0.45830676 0.23742028 -0.32031515 -0.6189452 -0.2822965 0.094517626 0.8366957 0.8724064 -0.2898582 -0.1519815 0.22630206 -0.34165022 0.013038431 -0.4372992 0.077374585 0.40443462 0.24214506 -0.08812169 -1.4628805 -0.39835244 -0.055912737 0.33934492 -0.6283191 -0.5692529 0.099947944 -0.1384945 0.17260669 -0.09026005 -0.5009909 1.377083 0.17787924 0.5777432 -0.13015196 0.70340574 -0.158886 0.31678614 0.29099488 -0.2705265 -0.6269958 0.45302105 -0.3709975 0.2578464 0.4991512 -0.35440716 0.110218726 -0.259407 0.17584734 0.23854555 -0.24154276 0.13870211 0.48375845 -0.4048316 -0.43157843 -0.49971858 0.38349852 0.06577846 0.3186834 0.21806261 -0.013257763 0.45476177 -0.3022971 0.060862746 -0.21857227 -0.53896946 -0.18058935 -0.25370532 0.028657578 -0.09047275 0.064284466 -0.15675531 -0.6314693 0.30202648 0.41066703 -0.09698826 0.028067224 0.60989726 -0.053148374 0.5533422 -0.33015198 0.91146016 -0.18613254 0.5011233 -0.049564045 -0.5500056 -0.51561344
like -0.0960516 0.33305576 -0.13336821 -0.026664725 0.12978908 -0.2916341 -0.10509694 0.7573952 -0.8147729 0.021778883 -0.40158325 -0.16812071 -0.01226319 0.20071883 0.1479183 -0.30233872 0.32972437 0.23917991 0.14751318 -0.84482867 0.510657 -0.2830366 0.19045474 -0.6178025 0.13104242 -0.0024120098 -0.57967955 -0.45354196 -0.10304231 0.27656668 0.28247643 -0.17915855 0.006688131 -0.34201828 0.032811873 0.34106633 -0.21017665 -0.11086069 0.15333663 -0.7440567 0.26587558 -0.47581252 0.078112416 0.005222098 0.09420731 -0.08605241 -0.24838251 -0.5692366 0.053663958 -0.39278585 0.082920544 -0.41876972 -0.19565786 0.4688022 -0.40865996 0.028882306 0.10724623 -0.2774892 -0.43378437 0.035132546 0.21026988 -0.023928104 -0.07465622 0.056948174 -0.3054302 0.4582236 0.59359014 0.28916252 -0.57982665 0.10485894 -0.7281323 -0.26985043 0.09117694 -0.043606862 0.31561196 0.00051874935 -0.310009 0.26251048 -0.21628678 0.021528712 -0.14893416 0.046595432 -0.4122595 0.78127956 -0.070372984 0.18286183 0.27685246 0.30930415 0.39846104 -0.29127005 0.08960221 -0.18436012 -0.15946844 -0.09168163 0.38926214 0.3846844 0.22080487 -0.19429472 0.31353143 0.23611076
got -0.12597519 0.11439603 -0.23858267 0.18170011 0.3629074 -0.11797623 -0.10648591 0.619035 -0.7840114 0.22751875 -0.25257215 -0.51027966 0.38540655 0.2111005 0.27739364 -0.5239049 0.06414863 -0.18581805 0.29648972 -0.64934605 0.5035108 -0.030913904 0.13144852 -0.38323426 -0.09816452 -0.031303406 -0.3316349 -0.2522038 -0.1314533 0.12048031 0.3760942 -0.25874692 0.14800909 -0.031567037 -0.091394074 0.41534424 -0.23675539 -0.054381415 -0.13249728 -0.577492 0.03151599 -0.26206172 -0.038018778 0.19437268 0.14299978 -0.090645455 -0.16888955 -0.597611 0.009517676 -0.025687031 -0.08920525 -0.420887 -0.11415913 0.23432162 -0.19351707 0.077620775 0.07011447 -0.13666807 -0.24111244 -0.19543573 0.2893006 -0.045811847 -0.16414535 0.059735086 -0.5465948 0.29135668 0.32626826 0.64052796 -0.6416963 0.47290125 -0.459126 -0.2681784 0.2856499 -0.015282782 0.28350344 -0.008553279 0.047063325 0.11148866 -0.13287336 0.025331777 -0.30725044 0.0040551755 -0.57678306 0.62739706 -0.030791515 0.03377659 0.09317212 0.23222575 0.44573814 -0.120831214 0.13546714 -0.18654737 -0.19341895 0.11740395 0.4123085 0.3510856 0.24304198 -0.14603591 0.3585989 -0.08716815
walk 0.33267286 0.156002 -0.06429841 -0.073842205 -0.23268132 -0.9706155 0.6709343 1.2303476 1.4159878 -0.8704976 0.66025895 -0.7302514 -1.0593617 0.40852705 -0.59641474 0.4007444 0.26769722 -1.2322772 -0.74467283 0.1395624 -0.43741947 1.2620937 1.2428477 0.27410585 -0.361881 0.1639538 -0.6951594 -0.06621353 -0.71825475 0.46629328 1.1575254 0.20989428 -0.29542765 -2.3648791 -0.71281064 -0.044205803 0.39365312 -0.84762037 -0.6252788 -0.32034642 -0.3858512 0.12520343 -0.42147624 -0.929556 1.5737878 0.46839502 0.42890432 0.032821637 0.97568226 -0.19397679 0.15889795 -0.23546255 0.07147424 -1.079066 0.7220374 -0.40941632 0.1681102 0.2798101 -0.8712756 0.40415448 -0.06889325 -0.15239169 0.63807017 -0.5604661 0.54514563 0.49235305 -0.7707784 -0.2963489 -0.6753078 0.59143645 0.97611886 1.1745378 0.5138432 -0.59776336 0.7295321 -0.3871565 0.05332958 -0.75501806 -0.5086133 -0.5851742 -0.64899915 -0.61808586 -0.16013625 -0.19593579 -0.34806702 -1.2998667 -0.0019551788 0.58366543 -0.23348542 0.14161037 1.4135358 -0.09707753 0.6645406 -0.5174559 0.8281922 -0.23042622 0.23228617 0.62242705 -0.8897922 -0.80907965
right 0.042573076 -0.07017224 0.029518664 0.11444411 -0.18647434 -0.16091637 0.0013185844 0.5566422 0.24475874 -0.043300338 -0.21625091 -0.41148648 -0.15070061 0.16082546 -0.3011971 -0.23191093 0.09443539 -0.5748762 -0.07707891 -0.46164435 -0.10345629 0.058963727 0.120741874 0.28204066 -0.028013846 -0.11522455 -0.35629204 -0.20790368 -0.38790053 0.05734216 0.4727576 0.13528952 0.12693089 -0.37558442 -0.26482385 0.30042148 -0.0075542075 -0.32691228 -0.07435746 -0.42817584 -0.037920915 -0.20215487 0.017504672 -0.07755272 0.30779532 0.05958152 -0.5095867 -0.30783245 0.34927806 0.14624399 0.027326787 -0.16268228 0.22392492 0.0024869284 -0.1701446 0.14394502 -0.08322189 -0.23432146 -0.45625013 0.2524392 0.23124973 -0.08604462 0.2486 -0.0053820717 -0.32970896 0.105866924 0.06441006 0.07171523 -0.2640811 0.17590138 0.23166752 0.42721415 0.19906028 -0.16659994 0.4312441 0.18760777 0.026416056 -0.05882008 -0.06501122 0.1858022 -0.22220753 -0.3826237 -0.3200308 0.343595 -0.32171074 0.030361261 0.017816368 0.3255918 0.09049341 0.06796964 0.5903598 0.3188888 0.018362064 0.10235092 0.27838907 0.1699728 -0.27878216 0.088300616 0.09222743 0.008421311
just -0.104646705 0.025690502 0.089095525 0.09862945 0.054984897 -0.3127648 -0.00971981 0.61295724 -0.019703524 -0.07700243 -0.24109793 -0.44530407 -0.18960118 0.24241287 0.015357407 -0.20144013 0.053098977 -0.37403548 -0.01611541 -0.5893794 0.12985499 -0.02386352 0.19438733 0.14642859 0.11917406 -0.07594325 -0.4261795 -0.07785669 -0.264319 0.16462159 0.315527 0.055991713 0.061935775 -0.28574866 -0.21206935 0.1880592 -0.040848248 -0.32323903 -0.063009776 -0.40177998 0.10600499 -0.2954772 0.13122445 0.044433385 0.24587844 0.0137275085 -0.30033562 -0.3719756 0.23968196 -0.039955284 0.031210829 -0.24862882 0.17069735 0.00095515716 -0.17571053 0.0928108 0.12919272 -0.15620874 -0.23852172 0.15633157 0.19842932 -0.013144814 0.23669878 0.062168952 -0.23472504 0.24997704 0.23639578 0.13040248 -0.3339468 0.19666578 -0.020981817 0.09845324 0.14856847 -0.15733317 0.35830277 0.05055048 0.04283302 -0.12382389 -0.15585835 -0.00040796818 -0.28050622 -0.19255628 -0.29845428 0.32322726 -0.14076486 0.054799594 0.25712872 0.29248452 0.17340386 -0.17898937 0.42391485 0.002807739 -0.11864103 0.11926518 0.34983674 0.34289348 0.05611246 -0.006678402 0.023621233 0.037963536
see -0.052567106 0.094699636 -0.31477806 0.05550884 0.21223919 -0.45359597 0.38495082 0.867459 -0.08056239 -0.28922403 0.28548697 -0.30899835 0.062846765 0.13947792 0.08573947 -0.003929485 0.18774757 -0.074269645 0.21997249 -0.46693692 0.385161 0.13304618 -0.26563865 -0.30986297 -0.04901896 0.23653544 -0.31203806 0.07242892 -0.17420438 -0.0879509 0.150265 0.12028293 -0.0016883725 -0.59033793 0.07807693 0.13833329 0.260702 -0.37451065 -0.3893708 0.094394 0.14886767 -0.29621562 -0.2325594 -0.08334984 0.4313307 0.04592284 0.091278814 -0.25855651 -0.20290153 0.22482613 0.17074569 0.021388546 -0.09073551 0.09728412 -0.02391875 -0.05170782 0.09223348 0.39432737 -0.34929073 0.12541938 -0.03767344 0.039884258 0.03713526 -0.09291393 -0.32412654 0.4277054 0.1356613 0.22833857 -0.31482136 0.1772392 -0.43493322 0.007416828 -0.015327208 -0.018955426 0.3671165 -0.17617466 -0.2047446 0.2740496 -0.37989983 0.04903259 -0.25158143 0.36959895 -0.35822347 0.28606132 -0.10069108 -0.1411956 0.2858059 0.015124289 0.3201985 -0.10710781 0.051399518 -0.134119 -0.01972665 0.089863405 0.4430118 0.11321276 0.5511843 -0.3394225 0.12977588 -0.10706192
over 0.17490964 -0.17745271 0.09039976 0.027171515 -0.16021697 -0.6324674 -0.02929605 0.7823249 1.300083 -0.25894904 0.15167497 -0.811663 -0.6856707 0.45005435 -0.55641615 0.043065045 0.16643725 -1.1034216 -0.30343804 0.039005563 -0.3519319 0.77557766 0.778256 0.6917691 -0.21410629 -0.0823684 -0.512167 -0.007998617 -0.49884528 0.35477543 1.1184418 0.19297773 -0.024920166 -1.5492723 -0.57064354 0.2107141 0.32975844 -0.59374285 -0.21543078 -0.4147943 -0.21656726 -0.13523938 -0.15158038 -0.4817413 0.8414087 0.47818145 -0.30486214 0.05862354 0.8368707 -0.10503892 0.022971034 -0.26146767 0.48576403 -0.6233873 0.3342227 -0.0033083125 -0.04168643 -0.1359067 -0.67288756 0.49430162 0.19583383 -0.2087386 0.50778323 -0.28451073 0.3652876 0.16204362 -0.586691 -0.10241595 -0.37230045 0.5174167 1.0576155 1.0713578 0.45502666 -0.49335915 0.68855166 -0.10055504 0.07676106 -0.5879072 -0.02397568 -0.22033818 -0.5987333 -0.82275194 -0.20421794 -0.16871625 -0.49629205 -0.6597319 -0.23785645 0.43623376 -0.08311588 0.27420253 1.1855854 0.104033805 0.3523607 -0.34970382 0.32654488 -0.14570604 -0.5240508 0.5878249 -0.5220892 -0.5083616
have -0.17256276 0.14623083 -0.5181673 -0.023528252 0.531132 -0.12238968 0.31416047 0.81558526 -0.15953723 0.0092641665 0.49345767 -0.29370412 0.13870846 0.078181475 0.24712108 -0.069802865 -0.07026588 -0.23611063 0.73737866 -0.48117927 0.30011132 0.35085276 -0.21519338 -0.3088838 -0.2806281 0.37604412 -0.33126858 -0.13183178 -0.10410975 -0.10331134 0.44180202 -0.13011603 -0.0971483 -0.36232433 0.38979575 0.33150205 -0.0075745876 -0.14993204 -0.11951826 -0.19958694 0.13196206 -0.5089243 -0.6329047 -0.09490273 0.13920891 0.23829961 0.08736108 0.07593123 -0.07634258 0.29706836 0.13460281 -0.29747257 -0.11715118 0.36237723 -0.21496965 -0.010041043 0.16261005 0.33834898 -0.39889368 0.021241203 0.20780931 -0.023481278 -0.07992188 -0.054625466 -0.4487611 0.2668374 0.25274932 0.71013093 -0.5878849 0.49123392 -0.4270069 -0.0062154033 0.34471843 -0.072088905 0.31635222 -0.5433647 -0.33893764 0.29962364 -0.21917325 -0.07265376 -0.35933793 0.18715136 -0.6279275 0.12552695 -0.11304948 -0.20159726 0.038138725 0.018266138 0.571765 -0.053075507 -0.033176772 -0.1983055 -0.18050732 0.15466823 0.65142334 0.47394246 0.42197472 -0.4240332 0.4563086 -0.32643265
not -0.1926091 0.28283757 -0.15307279 0.0889618 0.07723519 -0.30476892 0.04905377 0.77029395 -0.63255745 -0.100776955 -0.17644554 -0.2279574 -0.0080778375 0.23020199 0.07213357 -0.2747902 0.21422091 0.11959702 0.24867555 -0.43789658 0.30324185 -0.20803657 0.08981664 -0.41762832 0.14314567 0.101044714 -0.3246096 -0.24597861 -0.265579 0.07646632 0.1513646 -0.09981966 -0.059850506 -0.35695073 0.08923965 0.32041517 -0.0958509 -0.16616753 0.071326084 -0.5002255 0.20267987 -0.37441292 -0.1738338 -0.02324571 0.24070112 -0.09234418 -0.21514808 -0.16838285 -0.11747978 -0.113627605 0.047266364 -0.34499198 -0.20106226 0.25599197 -0.24535374 -0.037292965 0.02708238 -0.09725349 -0.40682375 -0.0021592365 0.08510159 -0.10201569 -0.037395764 -0.10667726 -0.40119317 0.31093872 0.5814628 0.4640026 -0.47192767 0.3369529 -0.49802348 -0.06154661 0.11419583 0.035089824 0.371495 0.14412029 -0.27094644 0.2602761 -0.21039106 -0.059140433 -0.2271791 0.06421212 -0.2808276 0.57296294 -0.05716383 0.06101087 0.16100863 0.08139483 0.37965134 -0.1895052 0.16124977 -0.07883143 -0.08882353 0.023074461 0.35750335 0.34501737 0.2949337 -0.30591053 0.48452628 0.06407362
we -0.096974105 -0.010639594 0.066561654 0.33882904 0.036565 -0.41271812 -0.4234201 0.7139112 -0.05229928 0.020190483 -0.051264234 -0.5487245 0.008041722 0.67572355 0.03390053 -0.11789347 0.2953995 0.11553055 0.062542215 -0.19900794 0.29846987 0.09200211 0.16947141 0.026994474 0.26490477 0.09454009 -0.37872607 -0.0964301 -0.24045844 0.15496485 0.45247155 0.02793987 0.14237894 -0.8177205 -0.072942436 0.12795968 0.1747612 -0.25688264 0.12369213 -0.42597336 0.15391472 -0.33131236 -0.24807289 -0.14423296 0.09595387 0.29573217 -0.5077959 0.096723616 0.096708395 0.076096974 -0.094676875 -0.527223 -0.21863261 0.1614443 0.06943306 -0.011672772 0.0054255617 -0.23727237 -0.2654052 0.07337702 0.20844246 -0.090979524 0.090463705 -0.026053475 -0.1434411 0.47649246 0.27028796 0.54915965 -0.46373448 0.6001827 0.28124365 0.33208779 0.27677134 -0.27365077 0.46947205 0.08727063 0.060544603 0.08791241 0.00019089003 -0.16429289 -0.5867032 -0.24481715 -0.24845885 0.27837718 -0.15877894 -0.13208722 0.080895826 -0.04939295 0.22843228 0.24037571 0.4846773 -0.14224038 -0.11889061 0.019342603 -0.029990716 0.31516075 -0.17579111 0.16324365 0.09343086 0.15461542
hear 0.3513065 0.23468724 -0.28928804 -0.3996265 -0.35096446 -0.9085342 1.1892858 1.1368513 0.40271622 -1.0646573 0.98304963 -0.10444447 -0.7191542 0.13015941 -0.19279377 0.5181877 0.1535964 -0.33602956 -0.8370776 -0.34131017 0.1293152 1.2699742 1.0871842 -0.575091 -0.2365681 0.2003678 -0.42868388 0.04855127 -0.7145132 0.03392484 0.36846364 0.34121066 -0.07869009 -2.092652 -0.39394218 -0.12152589 0.15410455 -1.059584 -1.1114223 0.15999834 -0.4026554 0.4203678 -0.19852169 -0.6058404 2.0729053 0.11306423 0.7854156 -0.43004486 0.94449484 -0.16731484 0.5188901 0.63679135 -0.38482994 -0.8781649 0.799754 -0.49332604 0.06352544 0.66073316 -0.5498904 0.14887445 -0.46383393 0.34176674 0.2800952 -0.45379046 -0.15020782 0.62443423 -0.68558264 -0.6118538 -0.6858417 0.41889435 0.06475812 0.51191586 0.2871481 -0.117936686 0.6966049 -0.1738345 0.2078255 -0.40929687 -0.9489331 -0.05404526 -0.5691559 0.098307066 -0.24108076 0.26087686 -0.43777227 -0.9291127 0.34436598 0.6153942 -0.043143246 0.23138417 0.79703575 0.122432046 0.91601133 -0.378279 1.2798259 -0.28907397 0.67358595 0.013170808 -0.77707356 -0.79167503
are 0.19214353 0.37225842 -0.70831525 0.17724162 -0.1543729 -0.104307905 0.70944643 1.1764556 -0.017262464 -0.46747595 0.59961224 -0.0005924296 0.20458671 -0.16471805 -0.465488 0.08297631 0.26076627 0.05447687 -0.032888107 -0.13609111 0.014434369 0.27548575 -0.35092875 -0.2813449 -0.3270978 0.24440016 -0.07763369 -0.48258114 -0.7139926 -0.3893278 -0.21531504 0.24395709 -0.30324525 -1.197117 0.22334816 0.5515695 0.3225775 -0.65171957 -0.54273504 0.19190119 0.0112308655 -0.061304346 -0.46949267 -0.28455633 1.3013437 -0.19191943 0.19575338 0.20296204 -0.055984102 0.34784266 0.45911747 0.16547106 -0.43693966 -0.29020792 0.14877209 -0.41163287 -0.579693 0.53002805 -0.6208787 -0.040847797 0.008447427 0.024971409 -0.0066995546 -0.4743687 -0.1736652 0.06596936 0.1860113 0.6418029 -0.6146735 0.36272132 0.0069386484 0.48604473 -0.11316027 -0.01593888 0.73159766 0.2958047 -0.13660604 0.44640952 -0.12949613 0.0660422 -0.5192993 0.16420925 -0.2367186 0.24406955 -0.36504567 -0.4214355 0.1870257 0.14567877 0.3348694 0.14147553 0.51284903 0.24957164 0.52405113 0.49425203 0.82638085 -0.25759205 0.5047396 -0.34151304 0.33905825 -0.22670725
wave 0.31882918 0.1684067 -0.13009965 -0.48943436 -0.47773615 -0.9517504 1.3411176 1.216674 0.38532954 -1.1118722 0.89066935 -0.14705102 -0.9121573 -0.040144887 -0.31982532 0.57311517 0.26515666 -0.53404593 -0.9890708 -0.53836006 0.10089803 1.23008 1.1202891 -0.4959492 -0.18913513 0.2974786 -0.477165 -0.12377783 -0.70790637 0.003996215 0.031848073 0.36913657 0.17062293 -1.8461008 -0.6670306 -0.14084758 0.23153205 -1.1811832 -1.1352298 0.20095745 -0.33506352 0.3801616 0.017210167 -0.5136862 2.2009711 0.14918056 0.6583307 -0.6704334 1.0245261 0.039990306 0.6285102 0.77977526 -0.34923324 -0.6835485 0.5663068 -0.48832497 0.23385136 0.5215269 -0.5360335 0.023299985 -0.59917384 0.34446374 0.33875874 -0.24338388 -0.30263683 0.78033143 -0.65649366 -0.79340106 -0.6857559 0.31572783 -0.17460792 0.47495475 0.23741177 -0.06580586 0.60186887 -0.020421727 0.24721709 -0.223604 -0.9836501 0.24913895 -0.29831418 0.14457841 -0.24081929 0.30075097 -0.2990437 -0.54808205 0.47143954 0.72045344 -0.17115846 0.1972671 0.7757848 0.40378276 0.8352039 -0.27019387 1.4901414 -0.22857504 0.62567484 0.06674532 -0.84203184 -0.63280445
of -0.21694075 -0.049854774 -0.20667392 0.050588395 -0.091286704 -0.07367694 0.17301805 0.7078878 0.3587247 0.26658687 -0.19741645 -0.15754667 -0.5389573 -0.03619219 -0.3702127 -0.37558424 0.034577254 -0.6043003 0.33422583 -0.37219164 -0.13353667 0.013070085 0.24029267 0.2847146 -0.2934327 -0.26757178 -0.32186514 -0.43254563 -0.33007503 0.08526535 0.65568095 0.10438386 0.061616182 -0.22343273 0.16518061 0.4089383 -0.18933582 -0.3056985 0.15145259 -0.52476203 0.14505619 -0.523286 -0.17042355 -0.15789023 0.017973352 0.2594939 -0.3475251 -0.23796788 0.61477065 0.084237605 0.50862676 -0.09403012 0.60268444 0.11310274 -0.5936505 0.2955998 0.104470566 -0.12893261 -0.9038298 0.27934048 0.24147867 -0.1691608 0.14193898 -0.24112445 -0.3738031 -0.16742468 0.2247684 0.15217242 -0.46591544 0.077937126 -0.05494331 0.34617862 0.2861781 -0.054667655 0.23036876 0.079899795 -0.106121376 0.31805846 -0.10429654 0.29605034 -0.24190907 -0.47312754 -0.19147779 0.084133804 -0.45755854 -0.008183422 -0.0974182 0.36495999 0.34958678 0.064053334 0.47817764 0.19140306 -0.11137789 0.0068317098 0.41106862 0.34575462 -0.20384893 -0.16824035 0.20410012 -0.044989765
pulse -0.3192967 0.5095261 -0.38367063 -0.2816376 0.44666576 -0.09432654 0.10290264 0.35157332 -1.6252166 0.29068512 -0.011217319 -0.6112856 0.15732212 0.20589228 0.64523226 -0.70507044 0.12724961 -0.27160928 0.42786482 -0.97994745 0.7360649 0.194939 0.40262482 -0.84277207 -0.15385169 0.15518427 -0.52188706 -0.54543346 -0.02099938 -0.25253624 0.23899901 -0.55177873 0.41272622 0.34668046 -0.005018327 0.46837318 -0.46728617 0.107585534 -0.016265871 -0.87654954 -0.34969926 -0.19228834 -0.0035163644 0.48376068 0.058474164 0.1489123 -0.31224743 -0.7854178 0.15410495 0.07988909 0.07594749 0.07486715 -0.24760285 0.81538445 -0.036886945 0.033876035 0.4262624 -0.37746093 -0.2850544 -0.4396483 0.20152684 0.061892487 -0.39830938 0.40455332 -1.1233352 0.40858802 0.36342597 0.4822603 -0.749762 0.6890918 -1.118478 -0.72788984 0.38947356 0.29486 0.14154285 0.0741386 -0.16049649 0.5310133 -0.24493176 0.08497111 -0.5128722 0.16323271 -0.67626625 0.8782225 0.13952102 0.53079903 0.13698167 0.49560663 0.60248107 0.06846744 -0.24891631 0.24515404 -0.1867546 0.027957713 1.1214764 0.72610015 -0.066814415 -0.21204644 0.6722333 -0.25195453
no -0.21080859 0.19191557 -0.27122122 -0.03279595 0.20291679 -0.27001062 0.084210604 0.69938505 -0.46428657 0.058111265 -0.004673805 -0.3341701 0.107036114 0.14880948 0.15742935 -0.32283536 0.16288064 -0.07825323 0.35273233 -0.44966975 0.32477096 0.0383684 -0.017713567 -0.42510244 -0.062604986 0.23388012 -0.28105322 -0.25977728 -0.19153601 -0.061248712 0.43540007 -0.1501313 0.0066215126 -0.3631652 0.11751524 0.230113 -0.024050862 -0.09325439 -0.013874602 -0.42628217 0.106261 -0.36257708 -0.39385745 -0.017872533 0.069183834 0.09771023 -0.34426883 -0.16606002 -0.023607085 0.09663602 0.11369711 -0.28981128 -0.14279924 0.34825796 -0.20617998 0.054999407 0.12249684 -0.024017893 -0.44808722 -0.0089253895 0.044381954 -0.10898395 -0.12585798 -0.0741831 -0.55244195 0.3548787 0.34958762 0.46741673 -0.5154286 0.39947104 -0.49850497 0.005536086 0.24127233 0.0680219 0.2966272 -0.10502358 -0.18715394 0.40915924 -0.17449383 0.11924511 -0.35487822 0.1033364 -0.44067657 0.48985547 -0.10586513 0.0005111637 0.026066573 0.11748381 0.41452178 0.011831428 0.15482292 0.010300901 -0.07800739 -0.0126570035 0.41273406 0.36303988 0.23483191 -0.3139979 0.4920598 -0.08614391
my 0.09337727 0.33923143 0.018717332 -0.28287312 -0.117130786 -0.6733844 0.50757253 0.8067236 0.5118509 -0.5768953 0.3181197 -0.27390796 -0.51435953 0.18816593 -0.2241927 0.16233844 0.32920456 -0.3143547 -0.53932095 -0.3131262 -0.098702975 0.6366138 0.5642713 -0.04302358 -0.037508063 0.110185064 -0.20940316 -0.09092017 -0.45507154 0.18907455 0.49272725 0.3089892 -0.11591595 -1.3682724 -0.49410984 0.1553722 0.22802067 -0.51447445 -0.26506442 -0.14646523 0.04091121 -0.03844506 0.054424956 -0.5023438 0.8092066 0.14656925 0.16511895 -0.10107615 0.553385 -0.081660666 0.3977575 0.15317693 0.031698216 -0.550068 0.15483288 -0.29999176 0.22340763 0.19217159 -0.56527597 0.18851946 -0.036613863 0.00015659396 0.29580018 -0.28098372 0.19320017 0.24800302 -0.30686888 -0.4220495 -0.45666093 0.16074197 0.38859206 0.48207894 0.13238391 -0.04860475 0.49695295 -0.1431408 0.18193375 -0.03933527 -0.38069847 0.036754634 -0.18127891 -0.10805593 -0.031070933 0.020265684 -0.1846441 -0.45392895 0.17463553 0.43256178 -0.14222777 0.045506954 0.965114 0.13552064 0.44085994 -0.308708 0.51531214 -0.07568113 0.15003851 -0.104675055 -0.2724367 -0.2940032
in -0.08538925 -0.08069245 -0.016643753 0.099068105 -0.079690196 -0.17784671 -0.0018727757 0.59766144 0.23733447 0.15516232 -0.21548524 -0.37801206 -0.40094706 0.12919791 -0.29317948 -0.27170244 -0.016093167 -0.59751534 0.099492334 -0.41980252 -0.16643876 -0.026114723 0.22548568 0.3167005 -0.10853624 -0.21871158 -0.40465403 -0.23141684 -0.37471083 0.00062558486 0.55170053 0.03457548 0.05859003 -0.18527497 0.01132226 0.36522037 -0.14046247 -0.33301565 0.082436785 -0.5842562 0.12368267 -0.4416851 -0.033370152 0.0063204276 0.10801392 0.11524307 -0.5248871 -0.20801364 0.4716916 0.08840391 0.13916004 -0.2785099 0.45723814 0.10107131 -0.41062653 0.31637916 0.04875861 -0.25858653 -0.56079066 0.2795717 0.35690966 -0.1319502 0.27959794 -0.0711329 -0.31490043 0.016739955 0.22029464 0.23721449 -0.34658214 0.18498275 0.10457116 0.3819785 0.31708562 -0.21488255 0.38946676 0.20262349 -0.023247916 -0.05658939 -0.049644854 0.037161414 -0.37212572 -0.46850488 -0.30551815 0.22832385 -0.47448435 0.055343334 -0.044578034 0.27633548 0.17212085 -0.008774041 0.4958706 0.21252666 -0.11822198 0.09589536 0.38115388 0.3399838 -0.33691844 0.09945507 0.10130976 -0.04863421
for -0.011596658 -0.04757573 -0.07871165 -0.15849881 -0.08547577 -0.09113974 0.37237448 0.37546012 0.052535776 -0.069124274 0.2066779 -0.2525954 -0.30823123 -0.030625638 0.01582078 -0.07834846 -0.0772885 -0.5427275 -0.2221142 -0.45241532 -0.029912056 0.513768 0.36639827 -0.025959585 -0.23991579 -0.1027639 -0.281685 -0.17616378 -0.35796982 -0.11997451 0.23581563 -0.03395656 0.22079472 -0.39084208 -0.1250979 0.06831528 -0.19408365 -0.43753007 -0.4120458 -0.25909594 -0.34408098 0.12295962 -0.0987437 0.12076584 0.65383554 0.12437478 -0.17572492 -0.45244035 0.56214565 0.08524403 0.24583863 0.29950458 0.079576045 -0.019485034 0.20674491 0.12426573 0.12437579 -0.17257464 -0.27615923 0.09751702 -0.16860089 0.19395801 0.16340671 0.07123546 -0.6100584 0.20084713 -0.23651443 -0.17996113 -0.28709 0.20058599 -0.03944826 0.09872652 0.28262064 -0.011032461 0.27145126 0.04102507 0.25268552 -0.17732535 -0.31667414 0.1506656 -0.5065963 -0.15526684 -0.2300257 0.19930756 -0.25001147 0.04562854 0.05642286 0.5446696 0.1789462 0.31479168 0.3476062 0.41855997 0.24646774 0.09981013 0.8967858 0.21233094 -0.19304834 0.18517208 -0.07703641 -0.30999923
be -0.16565014 0.1399821 0.2347912 0.2309475 0.21911177 -0.10117112 -0.077814244 0.5257114 -0.26721317 -0.12449309 -0.2196647 -0.627583 0.055350043 0.2012058 0.013871918 -0.27364418 -0.2115832 -0.49538767 0.15436286 -0.52352667 -0.0021604183 0.049075875 0.23995496 0.02479521 0.13424991 0.07454481 -0.41060588 -0.2003017 -0.4404853 0.07123638 0.26164198 -0.09441668 -0.11271156 -0.01426453 -0.32592216 0.36715966 -0.3242661 -0.05157319 0.074641325 -0.79218924 -0.009870337 -0.26515856 -0.09679843 0.060569156 0.19809541 -0.17760561 -0.26819435 -0.23380636 0.23367283 0.04826678 -0.2736965 -0.6316808 -0.0064314217 0.079020016 -0.32276288 0.07383613 0.07416853 -0.3741934 -0.15722047 0.04847429 0.49607927 -0.024580292 0.1523485 0.11226599 -0.3694599 0.23797502 0.34166142 0.49509385 -0.2795049 0.44022807 -0.0056943176 0.1133749 0.4561089 -0.25637206 0.43556237 0.18114862 -0.039490413 -0.38678417 0.030057421 -0.25258645 -0.19622733 -0.36422575 -0.5854304 0.3141137 -0.117717646 0.016213123 0.122279964 0.24112873 0.24518128 -0.2242291 0.4151666 0.081883855 -0.1678412 0.33100498 0.4703644 0.6264395 -0.11467113 0.088116534 0.09108823 -0.11206853
get -0.028749628 0.027022019 0.12293077 0.18455093 0.17835668 -0.30994174 -0.05436427 0.5771815 0.42440635 -0.08395088 -0.02414221 -0.62748605 -0.25711846 0.3140011 -0.042095345 -0.12441745 -0.143875 -0.77352005 0.026839476 -0.21464218 -0.11446872 0.42019817 0.5170905 0.35201728 -0.08769682 -0.048464715 -0.39749768 -0.06495691 -0.37886906 0.2841371 0.65891653 -0.02044787 -0.030261206 -0.52410835 -0.39791393 0.2619644 -0.06146689 -0.24300173 -0.14781815 -0.4808063 -0.14467975 -0.13076504 -0.09323787 -0.14692502 0.29266095 0.12809518 -0.097462445 -0.1043877 0.46986666 -0.06506561 -0.07889114 -0.48027205 0.21654338 -0.33438554 0.058291066 0.0674739 0.14250906 -0.11662092 -0.3039584 0.093353815 0.34093255 -0.08818848 0.30303845 0.007309738 0.028536292 0.13887523 -0.055037763 0.22075084 -0.40725854 0.4520174 0.42647555 0.31800166 0.38856366 -0.33218482 0.4308455 -0.12027318 0.07163593 -0.5111024 -0.061637826 -0.31629765 -0.39258003 -0.47073546 -0.37673417 -6.16635e-05 -0.1430952 -0.37161842 0.049731787 0.3379331 0.11471556 -0.07418002 0.6922991 -0.07727803 -0.02231038 0.049160857 0.33053818 0.27704313 -0.070791915 0.24804972 -0.20724502 -0.3071083
up 0.046914395 0.12965047 -0.01267997 -0.14724775 -0.09520444 -0.4944856 0.3151614 0.59324616 0.62371516 -0.26171494 0.19465768 -0.41303983 -0.65228194 0.14309181 -0.19738443 0.06136493 0.15344976 -0.8547006 -0.38363272 -0.19184121 -0.19447614 0.7293754 0.8932561 0.16029724 -0.2082615 -0.053659115 -0.49276513 -0.23792021 -0.43918237 0.22559312 0.7973884 0.10174582 -0.08896423 -1.1698878 -0.495285 0.0452585 0.06436121 -0.4394965 -0.22087108 -0.38442925 -0.32759714 0.063602686 -0.07574743 -0.3827216 0.84229183 0.39789316 0.04317782 -0.18969125 0.79051864 -0.1681677 0.24559638 0.03412716 0.17954515 -0.38294756 0.32113972 -0.10028213 0.22181845 -0.02524297 -0.5419065 0.2399421 -0.1054234 0.05265268 0.24371612 -0.16690291 0.19528319 0.197177 -0.47405964 -0.41529405 -0.34703547 0.24441501 0.51703453 0.5176783 0.31606835 -0.21787001 0.330943 -0.17994045 0.14851126 -0.37149835 -0.19031093 -0.13948078 -0.3995914 -0.42611727 -0.12637822 -0.07823909 -0.21805479 -0.4442565 -0.0012035408 0.6218407 -0.057581916 0.17777705 0.8445371 0.11508488 0.28913662 -0.30511877 0.6455121 0.024711244 -0.08281559 0.3357432 -0.41819596 -0.46484238
him -0.30991614 0.21309854 0.45524716 0.19042276 0.29799074 -0.28306022 -0.08678492 0.5554406 -0.079874 -0.1908026 -0.09468753 -0.8483115 -0.08679337 0.2950197 0.053299688 -0.079546 -0.24083807 -0.60552657 0.044145465 -0.4928193 -0.028409539 0.074752 0.42398453 0.1692293 0.11365184 0.24105468 -0.50882584 0.041443642 -0.30452582 0.092493325 0.30204353 -0.05161206 0.057547387 0.00037881406 -0.38603497 0.2807915 -0.09207481 -0.16591626 -0.026757646 -0.6344114 -0.05878653 -0.18484414 -0.10864273 0.020632425 0.030358123 -0.03856823 -0.20311616 -0.062597215 0.25236297 0.13014944 -0.08945998 -0.492042 0.024983404 0.039224096 -0.24366802 -0.059996795 0.41418988 -0.20926122 -0.20449987 -0.09733988 0.3944441 -0.04924065 0.3200796 0.28660908 -0.25609043 0.3572118 0.49922875 0.3547514 -0.34999314 0.41371703 -0.04873522 0.03626815 0.36989176 -0.19724467 0.36680943 -0.0050911424 -0.12822407 -0.39796188 -0.112862535 -0.33437854 -0.27933052 -0.1398402 -0.2839197 0.015871791 0.050590027 -0.010943029 0.36228275 0.32326552 0.1334575 -0.13440675 0.36339465 0.035468534 -0.20617762 0.18296605 0.58052653 0.75829357 0.050427064 0.07153314 0.06682178 -0.08989223
what -0.06350761 0.34423488 -0.031052876 0.28985128 0.11361372 -0.54115963 0.153695 0.9913256 -0.35758534 -0.47279975 0.12940158 -0.24754348 -0.042591512 0.34827936 0.03189582 0.04203333 0.41234475 0.3599929 -0.044031095 -0.44052744 0.39428073 -0.14298642 -0.06277097 -0.37284037 0.23730324 0.22649446 -0.3119568 0.030125929 -0.3677598 -0.0052391808 -0.024917046 0.24383226 -0.0194309 -0.7946978 0.112052254 0.16781788 0.33921993 -0.39493626 -0.12223664 -0.095003776 0.4055083 -0.29609683 -0.24203743 -0.1958231 0.47176328 -0.10256712 0.007231452 0.12716104 -0.2709772 0.088078365 0.2011589 -0.3329938 -0.42811665 -0.05804253 0.055155434 -0.19878225 -0.106389776 0.33972335 -0.38473853 -0.0262345 -0.026848158 0.02235375 0.13824823 -0.16401748 -0.10004898 0.44795835 0.61111987 0.4869604 -0.4939146 0.4206645 -0.2621387 0.035052903 -0.028200516 0.07751382 0.58536947 0.1281177 -0.2202255 0.30036253 -0.42006508 -0.21572684 -0.3421774 0.28539965 -0.076320894 0.39900804 -0.12945586 -0.13718764 0.47110763 -0.17373908 0.23336294 -0.20787981 0.4172691 -0.12036626 0.004667499 0.17974055 0.38992372 0.18417755 0.51503974 -0.37153807 0.27837574 0.15334666
then -0.18286496 -0.049063377 0.25793576 0.030841716 0.03911003 -0.3418525 -0.15665348 0.57702214 0.1593567 -0.017544944 -0.08029966 -0.641954 -0.3557989 0.5204266 0.16488679 -0.09133949 -0.21111399 -0.5695249 -0.15423131 -0.39948162 0.020387063 0.24682854 0.5909612 0.15292312 0.08813394 0.0051957187 -0.68397045 -0.1563197 -0.21682236 0.11906453 0.50990623 -0.04632404 0.0703974 -0.38769212 -0.3358339 -0.091128364 -0.21512131 -0.24897708 -0.08219338 -0.4955814 -0.1975101 -0.19823878 -0.043575983 0.03992294 0.2624571 0.4278442 -0.29809833 -0.29749745 0.49070427 0.27821502 -0.023800574 -0.33643198 0.09316185 0.030838821 -0.011461579 0.052553687 0.30539426 -0.30142277 -0.05799435 0.10443895 0.30003685 -0.025559746 0.15205222 0.17359181 -0.22550741 0.41454938 0.16035596 0.22502317 -0.2305543 0.41260254 0.22157963 0.013269549 0.4643983 -0.3761765 0.15079193 -0.008833086 0.2539446 -0.37925678 -0.007376606 -0.15196842 -0.4504708 -0.20187402 -0.57040876 -0.007265329 -0.05605446 -0.119785994 0.25631568 0.3704685 0.041917928 0.27514338 0.41469884 -0.12850407 -0.37974688 -0.054533876 0.4072274 0.6438606 0.017386578 0.35828844 -0.35703838 -0.2264631
one -0.12068196 -0.08716661 0.01985771 0.13526803 -0.13359657 -0.4004156 -0.12786934 0.7226496 0.059722375 0.1277942 -0.23627385 -0.39139852 -0.29433748 0.21904746 -0.107619114 -0.27173758 0.20485811 -0.27159944 0.14165476 -0.39614218 0.04257215 -0.11526506 -0.06451559 0.1809835 -0.030652167 -0.10568629 -0.30039865 -0.12636189 -0.21506092 0.10061482 0.46595174 0.062355988 0.103593014 -0.37753356 -0.050678473 0.28243288 0.025599599 -0.29732794 0.072468355 -0.47532964 0.39310864 -0.5375049 -0.063396506 0.04468038 -0.08349982 0.08995703 -0.5393835 -0.25965592 0.23914443 0.005581285 0.09608935 -0.46476746 0.35234782 0.123560004 -0.31411704 0.26578805 0.06267712 -0.170014 -0.47245774 0.1982564 0.21605574 -0.25513005 0.20641048 -0.13898806 -0.29925492 0.23173729 0.2823071 0.2893209 -0.38459745 0.0897755 -0.077502765 0.28926572 0.2877307 -0.13239028 0.436384 0.20181794 0.0422585 0.11605417 -0.16086407 0.16664362 -0.2782047 -0.22235683 -0.3745146 0.3445284 -0.40332112 -0.00012621908 0.038880993 0.11079595 0.18984003 0.028892746 0.45469314 0.10525268 -0.22447805 0.04376749 0.11659876 0.3442577 -0.039525207 -0.0064220196 0.24589667 0.10634229
he -0.28316042 0.31445563 0.11393917 -0.0635351 0.24126765 -0.24464858 -0.15828633 0.6012339 -1.0158038 0.06736109 -0.35372785 -0.43934944 0.018531762 0.30829513 0.2859209 -0.44823676 0.030484257 -0.052733425 0.2117728 -0.84478414 0.39847973 -0.2524345 0.4564422 -0.5513041 0.17822789 0.12966208 -0.61238015 -0.3000531 -0.1834854 0.09226574 0.3398028 -0.29884487 0.1334789 0.07571157 -0.019552412 0.3101956 -0.38494933 0.13141277 0.27716616 -0.9293369 0.058390107 -0.39432922 -0.07552775 0.16730623 -0.056983262 -0.09279483 -0.37497583 -0.40330058 0.15189444 -0.04911986 -0.048186515 -0.47707382 -0.22790882 0.6211642 -0.5307718 0.09551386 0.3238202 -0.42150187 -0.27415386 -0.108775556 0.2442008 -0.03154548 -0.07110956 0.24611019 -0.74908257 0.49421045 0.7534873 0.48850554 -0.52007407 0.4055745 -0.6921498 -0.2399656 0.3970677 0.027548408 0.15958294 0.11212764 -0.23295361 0.20021887 -0.13840334 0.019164922 -0.19850846 -0.039081432 -0.51228 0.781008 -0.008529837 0.32713553 0.10027081 0.29428723 0.35895494 -0.08785242 0.028947655 0.007309796 -0.26996136 -0.102102205 0.62916756 0.7564913 0.15795031 -0.18989085 0.4539847 0.072586186
good -0.1484856 0.32983452 -0.16501452 0.0023134605 0.1482351 -0.15627936 -0.05216361 0.54616493 -1.0623817 0.14705472 -0.30046073 -0.44785628 0.27047694 0.20305668 0.32123536 -0.46837017 0.13907732 0.036717314 0.064871766 -0.6038504 0.5073628 0.0053023174 0.37728772 -0.6329784 0.0633917 0.042850338 -0.33885735 -0.39193645 -0.16286552 0.0059896596 0.25064704 -0.33236945 0.18006225 -0.14571126 -0.09737359 0.20602174 -0.24536897 0.028268587 0.064315416 -0.7185429 -0.09630256 -0.1405885 -0.0987189 0.15295133 0.1977357 -0.002393936 -0.32944837 -0.4230417 0.026210122 -0.05438279 -0.037561376 -0.3570658 -0.39936617 0.3000816 -0.064868644 0.00031088162 0.08946259 -0.32620564 -0.21752371 -0.22124901 0.10685125 -0.022465829 -0.21976304 0.07869569 -0.6876376 0.4006053 0.4232656 0.55515826 -0.62877935 0.57179403 -0.56097037 -0.31465968 0.31153417 0.08319264 0.18057048 0.11921446 0.090056606 0.20449251 -0.18541838 0.033312824 -0.32530254 0.022335969 -0.39773002 0.66025925 -0.0031210273 0.085871845 0.0076371944 0.2329317 0.35943004 -0.012276759 0.11792405 0.014518317 -0.060249615 -0.006867036 0.6201704 0.4001359 0.17667177 -0.10235131 0.4026906 -0.07736501
now -0.0712044 0.08374237 0.10441192 0.11834985 0.020241706 -0.23041679 0.07009243 0.55369693 -0.125958 -0.14191045 -0.12816529 -0.40397787 -0.10222518 0.15064147 -0.026123637 -0.17456503 0.058341086 -0.29978475 -0.07448743 -0.3779181 0.025758576 0.053765424 0.21507642 -0.058856174 0.037228875 0.028183568 -0.3499344 -0.13784245 -0.30302712 0.047997706 0.30504733 0.019889202 0.07170181 -0.2760259 -0.20846999 0.20769016 -0.026899787 -0.21497601 -0.07167302 -0.425481 0.06563286 -0.17939274 -0.059075624 -0.043811098 0.25537187 -0.042137977 -0.2160287 -0.21900962 0.18262231 0.046849348 -0.0023347035 -0.2925881 -0.0013140175 -0.012320677 -0.19719453 0.017908787 0.07685437 -0.1378666 -0.25943625 0.041332353 0.16682893 -0.030751092 0.13505386 -0.011285482 -0.26687345 0.2477713 0.27428862 0.23276561 -0.39613712 0.27100512 -0.017712435 0.15036492 0.22020504 -0.071256585 0.33804062 0.10885148 0.0318753 -0.05992585 -0.1329985 -0.046881165 -0.2272768 -0.14262636 -0.255991 0.31231466 -0.18728624 -0.01585295 0.15836182 0.21041904 0.1296643 -0.052884933 0.38164634 0.045289245 -0.0387345 0.07734694 0.3349182 0.30404556 0.072785765 -0.005747506 0.1393468 -0.01960709
at 0.023973959 -0.055361718 -0.15127376 -0.2943949 -0.5380815 -0.30853024 0.7410076 0.7987958 -0.09845789 -0.3501911 0.21861658 0.19651397 -0.437731 -0.35527623 -0.35570675 0.1423813 0.26406065 -0.062129043 -0.5009517 -0.43641412 0.10229241 0.406496 0.47118044 -0.43418893 -0.24903493 -0.04108268 -0.20546836 -0.2924722 -0.45048806 -0.21286488 -0.36910522 0.28395545 0.31167156 -0.7590223 -0.012066281 0.102828294 -0.10661823 -0.74675304 -0.6666925 0.06496336 0.028697262 0.23676103 -0.0860547 -0.23457502 1.276284 -0.02656861 0.20429227 -0.5490232 0.5746541 -0.11007773 0.6374348 0.49446404 -0.17002985 0.014378282 -0.065919206 -0.11953253 -0.058217637 0.055013433 -0.44759664 0.050407764 -0.49503875 0.22694194 -0.012692622 -0.12487024 -0.39905885 0.41435713 -0.15597229 -0.31897882 -0.48404413 -0.019341825 -0.4954736 0.20317519 0.17513186 0.11899879 0.39914232 0.20316039 0.1862466 0.09206369 -0.7500643 0.33046162 -0.3057927 0.12706354 -0.032453664 0.419443 -0.46747813 -0.07771109 0.17943731 0.4976562 0.0837859 0.167372 0.3831502 0.36834767 0.5443742 0.018337863 1.0846086 -0.107762 0.28677833 -0.099405825 -0.22611448 -0.082372785
but -0.25086027 0.33162653 -0.12474403 -0.0049254713 0.19968705 -0.30377668 0.1100895 0.6467049 -0.7612423 0.0038989151 -0.18099576 -0.31424034 0.009257436 0.16390094 0.21204187 -0.31525072 0.095390566 0.026556406 0.2426771 -0.5879014 0.35769087 -0.0711269 0.22805613 -0.5084498 0.049203936 0.10537977 -0.3580033 -0.27097902 -0.19689043 0.070452355 0.2841569 -0.15487796 0.027769353 -0.15694107 0.046875235 0.3253337 -0.1492957 -0.05136268 0.052670226 -0.58441293 0.23606965 -0.36751857 -0.124964625 0.02874741 0.115146145 -0.0408297 -0.17497705 -0.31845722 0.08450035 -0.23118709 0.03516817 -0.34877548 -0.063455716 0.3218813 -0.3137847 0.04154566 0.18824358 -0.13595325 -0.37183785 0.002082641 0.13233337 -0.039930712 -0.073350094 -0.0034911793 -0.4403083 0.33589938 0.48127523 0.33978778 -0.5252385 0.3134238 -0.6462287 -0.2015687 0.24058406 0.0920596 0.26871675 -0.002605862 -0.2169969 0.20971835 -0.23689182 -0.02280425 -0.17036372 0.048017208 -0.37039745 0.56412476 -0.08352119 0.079753846 0.15906657 0.19676901 0.38367316 -0.2282641 0.079131484 -0.036513615 -0.15686168 -0.06230228 0.52674925 0.4271916 0.25819188 -0.3308132 0.4244988 -0.000887801
or -0.13778123 0.28168222 -0.2431164 -0.025400631 0.056410335 -0.2716744 0.3983432 0.6806388 -0.22619665 -0.25645742 0.086292766 -0.08626094 -0.12188775 0.0078056403 -0.0440089 -0.036370378 0.14962761 -0.059634496 0.16765888 -0.47262907 0.15973617 -0.0042180936 -0.0063492535 -0.2764824 -0.060375806 0.19118671 -0.35585442 -0.17821017 -0.28939426 -0.027664067 0.14872561 0.015887367 -0.1109457 -0.448563 0.1459463 0.34423918 -0.006969882 -0.3259835 -0.105723515 -0.20712514 0.10790636 -0.2874106 -0.2334133 -0.12809373 0.40901074 0.04640391 -0.16239393 -0.21910211 0.12058987 -0.047460504 0.2986826 0.10621268 -0.010352567 0.21929152 -0.1515611 -0.0517562 0.13032328 0.11683283 -0.5460193 0.16521008 -0.033646606 0.0003619271 0.059580415 -0.09498236 -0.36756322 0.20544198 0.35151583 0.04335398 -0.33039412 0.10079501 -0.50807285 0.091255546 -0.040808152 0.028131511 0.3010228 0.0059473836 -0.3103242 0.3063137 -0.24791376 0.10897036 -0.18793474 0.17310375 -0.18752219 0.3842903 -0.12353888 0.057565037 0.23679447 0.26799273 0.28026626 -0.06933952 0.1880018 0.13374767 0.080279954 0.024971146 0.5701362 0.21218856 0.24365585 -0.29526484 0.28567845 0.026135687
guy -0.120712884 -0.12607583 0.22012235 0.16703525 -0.14092366 -0.48734108 -0.34479114 0.70764726 0.28867835 0.024689265 -0.34014586 -0.685141 -0.5011709 0.40864825 -0.12723628 -0.26116034 0.18804869 -0.4195976 0.06800084 -0.29364434 -0.10280588 -0.14720729 -0.020792294 0.44752428 0.010190167 -0.22461665 -0.4714346 0.12781303 -0.1283034 0.18751602 0.5072228 -0.017747847 0.07517908 -0.42939705 -0.17923394 0.19705771 0.07696947 -0.3271848 0.11909138 -0.5503704 0.4192704 -0.52739435 0.023202179 0.14496179 -0.10997698 0.12637876 -0.6918946 -0.2586206 0.26373965 -0.025430273 -0.16410448 -0.72770965 0.5736858 -0.0012228824 -0.2007744 0.3663413 0.06700478 -0.33451647 -0.3359003 0.2687455 0.2997474 -0.35570765 0.3062385 -0.068878025 -0.12629768 0.33450302 0.22444116 0.35779595 -0.2928159 0.15254824 0.22314611 0.41091806 0.45503548 -0.38953167 0.46725267 0.25665218 0.1778469 -0.21228386 -0.12602682 -0.07053074 -0.43925557 -0.39079198 -0.39429635 0.30240723 -0.37720078 -0.10761927 0.028035613 0.065700375 0.0070150797 -0.0023651232 0.59088206 -0.038763985 -0.38677603 0.0283403 0.068554915 0.4293534 -0.15906708 0.28452083 0.12145807 0.11318492
bleeding -0.10622199 0.28243962 -0.314877 0.19430244 0.08820254 -0.003934492 -0.00931819 0.86759305 -0.6379412 0.09562312 -0.28336862 -0.116962194 0.19128902 0.15108576 -0.08936608 -0.5136879 0.30343202 0.091327325 0.30104095 -0.6768158 0.19053124 -0.5111714 -0.32665825 -0.33060753 0.013827673 -0.022400856 -0.41372067 -0.52388275 -0.2935594 -0.06909453 0.10248662 -0.10504925 -0.00634374 -0.06405045 0.23270215 0.5311187 -0.1322999 -0.15458371 0.24635434 -0.53749704 0.20840755 -0.55580807 -0.10104014 0.16811138 9.104151e-06 -0.11481035 -0.6618042 -0.30144796 -0.16011824 0.17337047 0.24612358 -0.2582038 -0.069625326 0.51474893 -0.5964134 0.13662696 -0.0989356 -0.18040924 -0.68516177 0.07779753 0.28759092 -0.11213193 -0.01493239 0.0029763547 -0.6251257 0.14436081 0.71959955 0.6511166 -0.49310988 0.059392035 -0.5820859 0.097745165 -0.045016672 0.003257189 0.36686528 0.29321834 -0.41032496 0.66197604 -0.023328485 0.28836495 -0.14643897 0.011369376 -0.39798602 0.7991286 -0.11148559 0.4152821 0.23099498 0.1703685 0.49895656 -0.011016861 0.23022951 0.2344046 -0.17596227 0.29913545 0.38148645 0.37665397 0.085864894 -0.26981646 0.7367004 0.2485112
with -0.04333387 -0.06857016 0.034183364 0.21215554 -0.058258694 -0.16763534 0.13964352 0.60068935 0.28140566 -0.15981531 -0.031010024 -0.4111999 -0.19863348 0.1369376 -0.19280574 -0.13045567 -0.022717074 -0.49620008 -0.04817707 -0.35247895 -0.16022371 0.06256629 0.025702529 0.34484276 -0.07666297 -0.085297935 -0.3855535 -0.022980053 -0.4575634 -0.05301883 0.38455957 0.13186486 0.03712461 -0.4298293 -0.10274842 0.2816558 0.038016617 -0.38590667 -0.1653839 -0.24443111 0.084300466 -0.26058882 -0.099337265 0.0014528974 0.326885 -0.0042353366 -0.304791 -0.12088417 0.25359377 0.22498557 0.04378273 -0.2690567 0.21647304 -0.1653402 -0.13326792 0.12767513 -0.1151468 -0.0019585872 -0.3613455 0.23877218 0.21247959 -0.04903518 0.33973473 -0.108925514 -0.29534262 0.11166603 0.2440375 0.25176466 -0.28248352 0.2087402 0.22543372 0.42018902 0.2122213 -0.2346033 0.47780612 0.16205214 -0.0025391565 -0.11688951 -0.1189613 -0.06137106 -0.4212493 -0.19956903 -0.25034234 0.17790306 -0.38113797 -0.080639146 0.10987525 0.2320109 0.13532658 0.031046953 0.49916884 0.10591853 0.023551164 0.23602638 0.34274536 0.17291367 -0.02984466 0.05534222 0.067377225 -0.11061173
put -0.035270102 -0.19167523 0.36648268 0.3382088 -0.025700761 -0.12711301 -0.18917288 0.4771066 0.26970845 0.06485109 -0.26748124 -0.6488224 -0.0863978 0.26169705 0.0011375903 -0.22622038 -0.3378217 -0.85951895 -0.04281066 -0.7641443 -0.0831339 0.060191553 0.0028438964 0.6950494 0.03688909 -0.14811939 -0.4197917 -0.030408131 -0.4369369 0.12516709 0.23292367 0.041864652 0.12058093 0.16431417 -0.46840137 0.366399 -0.22871953 -0.36102962 -0.16837813 -0.5140669 -0.13762642 -0.23633645 0.36338007 0.37138033 0.18022346 -0.030699823 -0.5791369 -0.57777095 0.5069611 0.20691612 -0.021200413 -0.17022903 0.43816102 -0.09774395 -0.11842006 0.30715886 0.14751638 -0.33871862 -0.17138599 0.06664338 0.5590505 0.024181811 0.38177016 0.3217179 -0.3811244 0.15295719 0.07931213 0.13141972 -0.11989291 0.09939392 0.18650296 0.12990835 0.22257249 -0.41980925 0.5518596 0.33157843 0.14265247 -0.45352715 0.04785947 0.044158336 -0.2551905 -0.38091925 -0.526368 0.26215577 -0.10030366 0.23863508 0.37035462 0.5025123 0.16269073 -0.041021224 0.6215725 0.3410303 -0.3077204 0.47830153 0.33782881 0.6200955 -0.31907398 0.31712648 -0.21354736 0.01740418
back 0.22336468 -0.035794117 0.10736374 -0.04450026 -0.27269495 -0.24590284 0.47564298 0.40168688 0.7055715 -0.2558885 0.18236008 -0.3814107 -0.53677374 -0.00216236 -0.21147105 -0.059259705 -0.050591767 -1.050141 -0.5737189 -0.5687502 -0.2184082 0.6895078 0.33590055 0.5123288 -0.18132092 -0.12588765 -0.41459203 -0.19256727 -0.5245108 0.03488302 0.45399868 0.2542308 0.20601931 -0.68752956 -0.5030669 0.10826185 0.1355889 -0.5914492 -0.46193334 -0.12936704 -0.42809546 0.082398355 0.10896772 -0.09239559 0.7979657 0.23108903 -0.24669287 -0.4218898 0.8256134 0.26734522 0.28087264 0.28635925 0.27562705 -0.3700596 0.22529638 0.10298964 0.03231646 -0.08511742 -0.30521944 0.31109282 0.017679537 0.1868242 0.49357247 0.06934822 -0.22881198 0.14351712 -0.39033255 -0.44803375 -0.33361495 0.1740303 0.53550404 0.53181183 0.13146383 -0.2834335 0.44208926 -0.02714916 0.252688 -0.33291405 -0.17621984 0.20699988 -0.4301127 -0.4208639 -0.24610987 0.01296672 -0.2891634 -0.10585931 0.2198496 0.7025779 -0.047342353 0.2658138 0.8150446 0.57534736 0.35336265 0.10503024 0.7182909 0.021971911 -0.26556468 0.32442984 -0.33521643 -0.34352785
think -0.2678868 0.28298083 0.003030315 0.20665272 0.4798409 -0.6200162 -0.09219782 0.9665216 -0.68013716 -0.23342662 -0.27401555 -0.81003255 0.21539551 0.38782868 0.28763428 -0.31968516 0.057401817 -0.14069857 0.25211322 -0.6552204 0.5007784 -0.16899712 0.2582007 -0.4087499 0.19268067 0.16210899 -0.5310277 0.15355773 -0.1182375 0.22047567 0.36744928 0.018938582 0.08680426 -0.15474509 -0.17996135 0.2514716 0.038024414 -0.12506258 -0.22549608 -0.49103218 0.36798596 -0.3544154 -0.05460546 -0.055394035 0.15420774 -0.26008034 0.23248392 -0.38399333 -0.41738778 -0.11290427 -0.25486204 -0.72536504 -0.0736468 -0.004495976 -0.2931263 -0.16048606 0.20659414 0.11409541 -0.12857209 -0.10936188 0.32102698 -0.09053652 0.046505384 0.032466795 -0.22227965 0.54379594 0.70953864 0.6805663 -0.65475017 0.5026247 -0.54164064 -0.350716 0.25743395 0.012645846 0.29061255 -0.12378021 -0.147947 -0.09013011 -0.46082318 -0.4031625 -0.2048816 0.22644846 -0.42472082 0.4590693 0.08084808 -0.22604409 0.42804822 -0.028804855 0.2352029 -0.5681227 0.062053274 -0.6273955 -0.3020506 0.010517773 0.43475807 0.5026467 0.83298653 -0.3581676 0.25355798 -0.026139852
breathing -0.28821555 0.4702956 -0.35004893 -0.051013373 0.3266377 -0.13973624 0.17862575 0.791869 -1.2365712 0.063061915 -0.011759852 -0.26976025 0.27668715 0.15554714 0.3023124 -0.49898428 0.12848091 0.16793309 0.41351897 -0.81448925 0.5875071 -0.13595772 0.04006343 -0.85730416 0.0064016567 0.19097517 -0.4050489 -0.47307688 -0.22700474 -0.1609059 0.1682098 -0.3349936 0.09248026 -0.057968438 0.20800558 0.3965348 -0.2463057 0.0023370488 0.07108437 -0.65673214 0.08446013 -0.43528238 -0.30080065 0.17123233 0.13971144 -0.032092247 -0.30260777 -0.34004554 -0.04590276 0.13872795 0.15488698 -0.25987908 -0.4144088 0.6586683 -0.4175063 -0.009111245 0.15785708 -0.13882555 -0.39998832 -0.17640904 0.14759076 0.030843597 -0.30834004 0.041177165 -0.87983036 0.39447126 0.7536531 0.692441 -0.72418755 0.48988914 -0.96600467 -0.36869326 0.25745937 0.18600518 0.2687767 0.021115072 -0.3304996 0.5801665 -0.28656852 0.15353623 -0.2785861 0.28903732 -0.5704726 0.8158401 -0.021773508 0.24954617 0.1448137 0.21227224 0.6278699 -0.062035307 -0.110158436 0.05473052 -0.18560328 0.10176105 0.7791674 0.58348185 0.39068264 -0.5234062 0.716374 -0.004052583
know -0.10239983 0.26102334 -0.096453995 0.24637507 0.24802577 -0.49559903 0.14137538 0.8610075 -0.2574265 -0.43601388 0.054726645 -0.49908665 0.07685743 0.24732548 0.08784459 -0.028636754 0.059179857 0.046785973 0.07759452 -0.37687284 0.301173 0.005863346 0.05090794 -0.17221972 0.16100065 0.15966699 -0.34762967 0.10340224 -0.26996017 0.13577554 0.035355397 0.1314492 -0.10776673 -0.5342951 -0.09895089 0.28357446 0.13405207 -0.3533764 -0.3374186 -0.1413917 0.31583667 -0.22545604 -0.07035766 -0.16799523 0.46683478 -0.2626492 0.33951828 -0.11832926 -0.27527213 -0.12673475 -0.051371943 -0.46011528 -0.10521266 -0.21895614 -0.06323128 -0.24678199 -0.013151022 0.24724717 -0.13607149 0.010278082 0.220839 -0.035813686 0.15259892 -0.105080314 0.045708083 0.36820555 0.40753144 0.4620435 -0.4647609 0.35315445 -0.21974733 -0.11681139 0.06816032 -0.08713038 0.44753477 -0.08762622 -0.14778975 -0.13484348 -0.37008128 -0.386556 -0.2908881 0.20136386 -0.21598049 0.2281197 -0.07673154 -0.3157256 0.46153983 -0.03670647 0.18004023 -0.49111238 0.27115613 -0.4284329 -0.048248142 0.18920726 0.40695277 0.22992735 0.65694326 -0.3315418 0.10159907 -0.042968772
tag -0.6427077 0.10632453 0.85204816 0.53381073 0.33269498 -0.34285998 -0.45032474 0.77244455 -0.3010574 -0.22083308 -0.3466385 -1.5154159 0.021617407 0.6563417 -0.077879556 -0.30269253 -0.6146888 -0.9978153 0.0017807478 -0.6995451 -0.19386028 -0.3342407 0.6673388 0.5000713 0.21051382 0.23310268 -0.9232344 0.34565312 -0.61062443 -0.056725133 0.25052047 -0.14324915 0.19793567 0.6159727 -0.5155522 0.53391594 -0.1997289 -0.30920368 -0.21527785 -1.026681 -0.16310641 -0.22911993 -0.0461185 0.33656174 -0.048081324 -0.3678466 -0.5146195 -0.20988232 0.48125833 0.49096498 -0.32566866 -0.841414 0.113256246 0.030422023 -0.6021465 0.026791545 0.5504517 -0.51078016 -0.23425205 -0.26396483 0.8135149 -0.16964145 0.58052975 0.6288652 -0.7915861 0.35591498 1.150976 0.8360086 -0.45713437 0.78579265 -0.04088919 -0.06305783 0.66591215 -0.22919035 0.53796464 0.4965396 -0.15159409 -0.8347682 -0.09779655 -0.4702682 -0.4950466 -0.18799798 -0.4604977 0.1483255 -0.14631745 0.039545964 0.51683336 0.4653925 0.14165504 0.005047977 0.46585035 0.14115132 -0.5028332 0.45452186 0.79078937 1.338488 0.1154373 0.20559186 0.06368118 -0.03758835
else 0.06089649 0.59075785 -0.77446926 0.15922186 -0.117096104 -0.35235834 0.7488142 1.2884897 -0.25256452 -0.8156185 0.7210756 0.07801574 0.25864378 -0.15167603 -0.46838996 0.17216624 0.62692535 0.068984345 -0.13535167 -0.17208254 -0.14679486 0.13185205 -0.31245402 -0.70751286 -0.25732276 0.6593706 -0.4298239 -0.32645735 -0.67862767 -0.47801653 -0.34933347 0.38398486 -0.49629706 -1.3429129 0.41906923 0.7085417 0.30743563 -0.7516556 -0.63217175 0.18641585 0.026420994 0.036860976 -0.6929716 -0.461194 1.4565402 -0.20154136 0.07043652 0.05560495 -0.50842875 0.31785858 0.44875944 0.4061298 -0.6788007 0.051041927 0.23984255 -0.46934018 -0.48783115 0.6575296 -0.9436965 0.090685315 -0.20004733 -0.028251482 0.16029681 -0.3063711 -0.39020944 0.35419914 0.5248085 0.38690987 -0.5324517 0.33881444 -0.46802917 0.6694275 -0.4618263 0.0036698084 0.506847 0.4259819 -0.51973575 0.7063805 -0.2606036 0.03955323 -0.4307368 0.5483356 -0.100335784 0.5685925 -0.15222031 -0.24094038 0.45170832 0.298275 0.19371057 0.2859339 0.33787927 0.294663 0.69417024 0.4915585 0.91388154 -0.33632693 0.72199047 -0.25381207 0.46426257 -0.056801096
any -0.21668652 0.25496522 -0.7413066 -0.033293623 0.56148213 -0.27576497 0.644212 1.1198056 -0.43260732 0.12397921 0.8200361 -0.22862688 0.18952586 0.081484266 0.13149603 0.09857543 0.32208377 0.16599144 0.80844235 -0.4761629 0.27651617 0.39788017 -0.78290325 -0.69407463 -0.43925583 0.7349659 -0.19779766 -0.39646778 -0.26793164 -0.5834765 0.6136574 -0.022625333 -0.009636947 -0.85020924 0.8324897 0.6292875 0.41712838 -0.31140566 -0.036120094 -0.20379052 0.43101415 -0.84753305 -1.1569635 -0.05552098 0.07027573 0.5826414 -0.47157547 0.46457723 -0.21418568 0.53474367 0.67542773 -0.09214667 -0.30197108 0.81607115 -0.5380986 0.09374047 0.14499845 0.52711695 -0.95201385 -0.018758021 -0.122187056 -0.0063227555 -0.23058547 -0.17634946 -0.7864326 0.5133889 0.5167192 0.80188173 -0.6682052 0.4308485 -0.90879536 0.2338149 0.1598298 0.19625318 0.5672198 -0.5025895 -0.61475784 1.1536741 -0.14588027 0.28748897 -0.61834455 0.5506301 -0.6517146 0.1585965 -0.40377596 -0.019892007 0.092295386 0.019622281 0.901543 0.43162838 -0.14485475 0.29482147 -0.19642651 0.1974688 0.6866739 0.45304033 0.4128152 -0.82863826 1.0228771 -0.14763106
sir 0.18681276 0.36231133 -0.32897902 -0.054704208 -0.08201682 -0.35722908 0.8212245 0.9027681 -0.09379019 -0.53348523 0.73866427 -0.008544089 -0.10154265 -0.111549094 -0.12664856 0.16223471 0.26854935 0.015726 -0.4008055 -0.38074067 0.25127262 0.6590941 -0.048583042 -0.37388554 -0.22839433 0.22101845 -0.07952664 -0.25891104 -0.57630414 -0.3015797 -0.1856558 0.1756724 -0.079625 -1.2126166 -0.07922028 0.19452462 0.34643885 -0.6621425 -0.54885536 0.20310292 -0.1758792 0.1462674 -0.28379887 -0.16057922 1.2520941 0.062435728 0.14299038 0.010622402 0.26857334 0.31897405 0.59036905 0.46788594 -0.48494443 -0.31244633 0.39779982 -0.3159368 -0.22157466 0.43905345 -0.46506155 -0.048874334 -0.36103842 0.29637712 0.053739298 -0.32161033 -0.27631357 0.310395 -0.115681976 0.074444704 -0.5396695 0.2975135 -0.059851766 0.3111042 -0.046263438 0.009901475 0.632986 0.119487084 0.053791657 0.34415844 -0.42348465 0.1346964 -0.50575066 0.26493448 -0.12737793 0.19955252 -0.27747348 -0.20878145 0.26791042 0.30025452 0.23100872 0.2971227 0.4931767 0.46599033 0.60657966 0.2231253 1.0078694 -0.19701834 0.34041673 -0.2980793 0.07291847 -0.2873401
where 0.13634822 0.2580702 -0.21480894 0.23182352 -0.25775725 -0.3318377 0.35081783 1.0047488 -0.14452931 -0.5138452 0.16297667 0.0119940555 -0.04084088 0.117673025 -0.34210822 0.13614634 0.33980504 0.25185516 -0.24409299 -0.24951628 0.15207244 -0.07851079 -0.16559033 -0.21574505 0.12765382 0.08244194 -0.23004115 -0.16020884 -0.52233464 -0.113635026 -0.24625404 0.30290303 -0.123747505 -0.85737735 0.13417874 0.20871899 0.33949968 -0.5979453 -0.23448251 0.04796081 0.27502912 -0.1873169 -0.19806229 -0.1643748 0.87296176 -0.15841825 -0.0067127347 0.15408945 -0.132535 0.18724605 0.3601131 -0.0026491096 -0.3524067 -0.25381625 0.03426604 -0.2674009 -0.29141074 0.32583365 -0.51133555 -0.0123766875 -0.07878173 0.042280443 0.13400342 -0.32365167 -0.0875026 0.27047727 0.48622954 0.37599784 -0.5109026 0.2937732 0.0018230478 0.3199371 -0.17570673 -0.008323376 0.6044237 0.35811707 -0.17523655 0.3457805 -0.23870829 -0.04976782 -0.30786863 0.16729254 0.027399188 0.40909147 -0.21799962 -0.14304388 0.47749987 -0.021414239 0.12946793 -0.039244995 0.52852637 0.12296457 0.20118293 0.29411948 0.4101068 -0.04605218 0.4348534 -0.28653845 0.22515658 0.17450276
how 0.014850517 0.4107136 -0.112767495 0.31809148 0.3230926 -0.49264213 0.19577157 0.99634826 -0.29136512 -0.42002657 0.31402552 -0.28951263 -0.03978298 0.24548958 0.24867073 0.040549412 0.26975057 0.37417752 -0.0016499768 -0.3981202 0.41147283 0.24039696 -0.1565777 -0.27584612 0.20114823 0.11073667 -0.2435358 -0.02100431 -0.35035345 0.037467174 -0.032827158 0.18227643 0.028209068 -0.9731928 0.040961172 0.19124784 0.33993655 -0.42243618 -0.18882114 -0.011488519 0.35388973 -0.20647508 -0.22890435 -0.1743272 0.55768377 -0.022293245 0.15224645 0.30185857 -0.26186362 0.045923173 0.22702505 -0.27502772 -0.43046835 -0.26073554 0.29186812 -0.320281 -0.18591225 0.47561994 -0.14121109 -0.10859805 -0.006646477 0.17402728 0.107068375 -0.27178362 0.046418346 0.3597036 0.39968875 0.5754607 -0.644641 0.45001552 0.06113168 -0.012316194 0.017290505 -0.006966922 0.6911127 -0.11259205 0.0043706372 0.16079938 -0.46865657 -0.41920486 -0.5718011 0.36645958 -0.09708382 0.113817506 -0.13049188 -0.38125014 0.5152479 -0.10995737 0.26705757 -0.23077437 0.4629747 -0.24302217 0.008750694 0.23237157 0.57470393 0.18907106 0.602042 -0.4828049 0.25588316 -0.068666935
his -0.14395854 0.3660133 -0.059620157 -0.17441817 0.06753784 -0.03595975 0.34323052 0.6834352 -0.6652511 0.21215242 -0.34708038 -0.2119252 -0.053155873 -0.18724208 0.21942477 -0.48697224 0.14531897 -0.3509905 0.20568866 -1.110611 0.1972194 -0.074793905 -0.06672436 -0.3763416 -0.15864822 0.013251323 -0.34412628 -0.5796643 -0.26063496 0.018516665 0.27512014 -0.24517788 0.26640272 0.15399341 -0.09973566 0.5312695 -0.3057758 -0.21084948 0.1981295 -0.6720977 0.007211047 -0.48243424 0.12634508 0.35636955 0.043385413 0.024958154 -0.57942134 -0.7656874 0.32409933 0.07607478 0.4992562 0.30759278 0.19576508 0.64734703 -0.5444556 0.14139378 0.4320023 -0.30486217 -0.65304834 -0.08636133 0.08678302 0.0623185 -0.10361926 0.16577706 -0.8702836 0.2614363 0.41564795 0.060923316 -0.38385198 -0.2537638 -0.862928 -0.18899226 0.013378028 0.2744711 0.23744771 0.2654663 -0.20672053 0.665097 -0.15928276 0.6777296 -0.016796883 0.11520728 -0.28560346 0.7153884 0.16296864 0.6936789 0.31091437 0.6398115 0.42454854 0.0017267904 0.28592095 0.54606676 -0.12854351 0.07182811 0.88718885 0.6034906 -0.013359339 -0.3714787 0.6556676 0.046011537
anything -0.10784263 0.45827618 -0.45159096 0.08965756 0.23132357 -0.299203 0.6442275 1.1078293 -0.4788962 -0.5746551 0.40919042 -0.051616833 0.1404203 0.26534307 -0.14985257 0.1719332 0.46714392 0.17583047 0.09843714 -0.33632106 0.43593302 -0.110928014 -0.30217046 -0.6718605 0.15445146 0.30753994 -0.19100918 -0.23555467 -0.44221178 -0.30740803 -0.16846438 0.18920335 -0.2109435 -0.70058453 0.29369438 0.42243984 0.4866833 -0.44958952 -0.20161468 0.03498962 0.23932108 -0.33433837 -0.41687024 -0.13742594 0.8203402 -0.05573874 0.006741996 0.2434002 -0.3543852 0.293085 0.33010823 0.087767415 -0.6527619 0.18476295 0.0031556217 -0.30651042 0.07835603 0.46136314 -0.5559295 -0.20327328 -0.09530964 0.12334475 0.03849693 -0.1828576 -0.39635175 0.40418077 0.6178084 0.51051515 -0.4915463 0.43641344 -0.66848624 -0.05701186 -0.29480922 0.24470393 0.49656156 0.06802845 -0.5226967 0.6417138 -0.32003033 -0.120690234 -0.16408212 0.5027012 -0.14952363 0.46521315 0.13758639 0.08099369 0.45583335 -0.047332596 0.40384188 -0.09256422 0.16543977 0.13733923 0.059947867 0.30277732 0.6443894 0.08452937 0.6317664 -0.5433828 0.60281247 -0.0137531785
well -0.17066406 0.19387628 0.026099617 0.13579239 0.20972997 -0.34478635 -0.0896505 0.63528013 -0.5729845 -0.023307825 -0.19918182 -0.49374053 0.08035468 0.30911964 0.19545345 -0.3079901 0.105632305 -0.01872427 0.15667908 -0.5413299 0.361439 -0.07262817 0.21536238 -0.24818428 0.15437336 0.07888655 -0.35490942 -0.15716583 -0.18515009 0.11956057 0.33045784 -0.10395614 0.079314515 -0.2610377 -0.16417313 0.25936753 -0.06436993 -0.08813502 0.014060497 -0.5712599 0.16358902 -0.3043936 -0.06703544 0.050877977 0.098197155 -0.054703288 -0.27963853 -0.28333148 0.056099907 -0.09005803 -0.08950165 -0.52396435 -0.15451074 0.17201065 -0.22047627 0.03204462 0.11507776 -0.1777421 -0.18708806 -0.016493648 0.21961811 -0.030397959 0.020868154 0.024626315 -0.35999233 0.40156397 0.42998487 0.46206927 -0.51003814 0.4042848 -0.33024096 -0.07330427 0.26796696 -0.03572444 0.33788636 0.057537444 -0.05817388 0.06468301 -0.17668857 -0.10871715 -0.26162967 -0.059943445 -0.41710418 0.5089726 -0.06386933 0.022019079 0.18043505 0.12827292 0.31603694 -0.18336463 0.24675147 -0.11167594 -0.17596288 0.0407003 0.326794 0.40187073 0.21292932 -0.1460254 0.28193638 0.033585828
anybody 0.22421457 0.16548745 -0.053741965 -0.21722192 -0.31120285 -0.91477245 0.826807 1.1045552 0.6914681 -0.8879897 0.6461326 -0.25190344 -0.8078896 0.24513794 -0.47122094 0.498895 0.42451292 -0.5976423 -0.8209616 0.01997584 -0.0070442557 0.93258697 0.99700624 -0.232343 -0.08775416 0.20696262 -0.41023213 -0.041425228 -0.59104425 0.1386942 0.35922945 0.31484184 -0.10240013 -1.8660702 -0.5730819 -0.047478322 0.509922 -0.8282605 -0.63187486 0.03802994 -0.24950416 0.2233513 -0.22270985 -0.6511196 1.6812959 0.2548508 0.34919828 -0.060587347 0.77355105 -0.07512943 0.32760653 0.32527605 -0.3715932 -0.66773707 0.66500264 -0.40448153 0.27737817 0.35766095 -0.6552792 0.11723418 -0.49618053 0.12822351 0.34208834 -0.39949435 0.15511623 0.61362946 -0.49458355 -0.5106565 -0.47390938 0.42892155 0.26543495 0.68677026 0.10674754 -0.09283576 0.5406888 -0.04838118 0.06129399 -0.21549857 -0.6241022 -0.19683641 -0.27195412 -0.13176997 0.06848743 0.11959032 -0.17798992 -0.63523555 0.14761657 0.48681584 -0.2047161 0.23876621 0.91262114 0.18372488 0.6579583 -0.39154816 0.86997855 -0.3405564 0.36268312 0.2725944 -0.6335427 -0.5171261
was -0.23222212 0.08215191 0.03924021 0.14248578 0.08613564 -0.59664947 -0.06846776 0.83424217 -0.29204693 -0.14021641 -0.354294 -0.49907586 -0.12723145 0.30680594 0.065014675 -0.2620343 0.16868699 -0.0504101 0.20146658 -0.5593753 0.37414458 -0.2451388 0.14495386 -0.15191363 0.24182868 0.012651205 -0.47015944 0.11103078 -0.19299696 0.25540793 0.28405195 0.060307823 -0.029812958 -0.31814012 -0.120080285 0.2318844 0.029140031 -0.29059434 -0.054497454 -0.45533094 0.45412368 -0.4770786 0.037927687 -0.063789815 0.1770582 -0.13885571 -0.12935062 -0.41377267 -0.023404954 -0.24236794 -0.08646126 -0.56055695 0.13421072 0.058105744 -0.32364446 0.082163006 0.13555706 -0.042909704 -0.27667776 0.19732063 0.16362159 -0.16437131 0.12835358 -0.10918718 -0.18207395 0.41045085 0.473082 0.32232684 -0.40208542 0.28865334 -0.3344483 -0.07445583 0.22878213 -0.053518567 0.33379057 0.07902118 -0.07456283 -0.11629679 -0.35920033 -0.091225795 -0.18887402 -0.04001978 -0.34811658 0.51670796 -0.18854442 -0.0630456 0.22696643 0.02888882 0.22403228 -0.44937238 0.26672962 -0.33591595 -0.27809522 -0.06821134 0.17606041 0.34281817 0.44885194 -0.21186927 0.14222068 0.15339594
check -0.26369372 0.24847789 -0.1063776 -0.02346188 0.24888772 0.035284415 0.108486064 0.36644733 -0.62729204 0.29824787 -0.20506051 -0.4797529 0.044911694 0.14158373 0.47507313 -0.508055 -0.28169325 -0.52454984 0.014806355 -0.705577 0.24988103 0.31714603 0.25798416 -0.21182153 -0.15721996 -0.07937726 -0.36857623 -0.42548928 -0.15883368 -0.03834423 0.30737367 -0.4856404 0.22391962 0.2017463 -0.16152547 0.11542813 -0.34318423 -0.0026998578 -0.07033233 -0.61114055 -0.32191864 -0.048720207 -0.09832899 0.319933 0.1451275 0.23224904 -0.43971038 -0.6153562 0.35671544 0.15811257 0.027969107 0.0018186164 0.020325804 0.19932568 0.06298992 0.2719944 0.24534065 -0.36225265 -0.19907825 -0.19130309 0.07067473 0.08803837 -0.06291336 0.21853574 -0.81424767 0.18335237 0.10054241 0.3039687 -0.5378764 0.5457266 -0.43316603 -0.42462108 0.28264165 0.017644785 0.09794686 -0.12394065 0.16242628 0.063819356 -0.1482298 0.22952822 -0.4256515 -0.12811093 -0.4597354 0.42597505 0.02446654 0.12981312 0.12346723 0.5035315 0.3654111 0.07324469 0.15264986 0.33713788 -0.054035924 0.18669023 0.90908647 0.51362646 -0.045490205 0.047354754 0.2597097 -0.2597418
move 0.14168032 0.09339563 0.04561521 -0.12174298 -0.17663719 -0.5055371 0.59637284 0.6314465 0.7258628 -0.4689849 0.2954579 -0.3352491 -0.6586296 0.06147357 -0.22430874 0.18415514 -0.005243027 -0.843517 -0.4677059 -0.37052596 -0.2527623 0.6427308 0.49123564 0.28182754 -0.19064279 -0.0062249424 -0.3926668 -0.054785773 -0.42556605 0.17029363 0.48111403 0.16660108 -0.011133825 -0.9428856 -0.5274595 0.08470909 0.13525708 -0.6013597 -0.423815 -0.09209796 -0.20973645 0.019125696 0.114460096 -0.27011955 0.87328047 0.24334446 0.05456546 -0.35697022 0.7201577 0.056455456 0.27636802 0.27563933 0.31466112 -0.4797215 0.29659763 -0.059148747 0.17623392 0.16292551 -0.4555846 0.24742053 -0.019873926 0.034003325 0.40113428 -0.12142726 0.044238433 0.16661961 -0.42963162 -0.48856062 -0.22593118 0.0747861 0.35100928 0.46447992 0.1601857 -0.24505515 0.44354156 -0.101394266 0.10601467 -0.35276836 -0.3344183 0.075837195 -0.22810398 -0.2228354 -0.17992488 -0.043430664 -0.22453806 -0.36276254 0.19034529 0.5495287 -0.1062211 0.05172298 0.76464134 0.29057086 0.30429298 -0.13408864 0.6953648 0.002928355 0.029152315 0.17323141 -0.48651078 -0.3914452
red -0.48647276 0.115115486 0.48239362 0.2998776 0.3490033 -0.17981507 -0.41777834 0.60876125 -0.6207077 0.10794388 -0.50239515 -1.073259 0.09766026 0.5533343 0.106855586 -0.5131851 -0.3861698 -0.6127582 0.25902528 -0.81748194 0.088667855 -0.34481654 0.46197954 0.17718609 0.21662524 0.057342764 -0.7521213 -0.02667869 -0.40492877 0.041939374 0.44784302 -0.24220118 0.1612534 0.530018 -0.27851713 0.47972313 -0.4179853 -0.0094281295 0.16529228 -1.0908135 -0.0096579315 -0.42849696 -0.05123983 0.34453493 -0.23945147 -0.19603336 -0.58678585 -0.31866473 0.2921516 0.23370352 -0.32240644 -0.8878924 0.11721209 0.36957142 -0.66311705 0.2261319 0.36028194 -0.5748488 -0.14598222 -0.113807455 0.72751987 -0.17802268 0.25422114 0.44578138 -0.7587578 0.31337726 0.9871797 0.79336905 -0.46832818 0.62799996 -0.2464418 -0.12746598 0.6246882 -0.25094 0.3579926 0.3499311 -0.14761265 -0.4121145 0.004229817 -0.3177525 -0.41662726 -0.27702814 -0.646007 0.4797855 -0.13562274 0.28453657 0.242315 0.34320357 0.3172412 -0.111186706 0.27380633 -0.00039889434 -0.545041 0.31629863 0.5569541 1.0859387 -0.0750976 0.07557153 0.36217844 0.016889311
out -0.024956048 0.042860493 -0.04538773 -0.03248322 -0.101500295 -0.24208324 0.05484746 0.54088247 0.36493915 0.14806227 -0.16481751 -0.38061386 -0.47078428 0.11599874 -0.18530788 -0.18668139 0.057628024 -0.6653355 0.059506636 -0.2969989 -0.20534392 0.3432788 0.42901856 0.1870496 -0.24929558 -0.15863974 -0.31828088 -0.3595136 -0.26791406 0.1529281 0.7287988 0.013728054 0.13801359 -0.5035464 -0.25708845 0.33805728 -0.10262885 -0.3770747 0.030193286 -0.47756872 -0.004741606 -0.35083368 -0.030778661 -0.12141809 0.17547363 0.28538862 -0.34292516 -0.24370204 0.5450036 -0.093483105 0.23505987 -0.108946815 0.46419576 0.0044703586 -0.15835634 0.16851306 0.12871443 -0.25148773 -0.58414537 0.1835045 0.16503012 -0.03607067 0.17118865 -0.11754459 -0.09417407 -0.00038726136 -0.06981183 0.008165563 -0.42372456 0.109990224 0.25687456 0.39424363 0.24640773 -0.14388257 0.37536138 0.041653242 0.015125119 -0.04945813 -0.035068516 0.09749434 -0.3957102 -0.49464333 -0.2880248 0.13928047 -0.26083374 -0.12563957 -0.059964657 0.43240058 0.13975012 0.07700094 0.5983179 0.21595785 0.035765123 -0.12644291 0.38481078 0.17347883 -0.2912505 0.12202198 0.09094265 -0.21553795
all 0.059267864 0.16012459 -0.15290248 -0.012119036 -0.10681793 -0.29162782 0.2840181 0.69233555 -0.0239701 -0.25021625 0.06674931 -0.16725114 -0.24246976 -0.0148897795 -0.19603698 -0.020970657 0.18762219 -0.16775501 -0.07048607 -0.23364812 0.0032745984 0.1758412 0.24104847 -0.17174995 -0.113553904 0.08293685 -0.21161772 -0.26145014 -0.311214 -0.00014047058 0.20756121 0.0915176 0.04869866 -0.55748016 -0.07556628 0.15100357 0.11166899 -0.38940182 -0.19201824 -0.15405309 0.10954593 -0.13190402 -0.18681593 -0.22052373 0.49091107 0.06397358 -0.0006916362 -0.1067627 0.24460246 0.071262576 0.29037067 -0.038262717 -0.009313978 -0.0987351 -0.11874821 -0.12309812 0.012457612 0.09276023 -0.47689554 -0.006834264 -0.055818845 -0.038187053 0.06586281 -0.2292743 -0.20412594 0.19665582 0.13407622 0.09694585 -0.508551 0.2016778 -0.07964159 0.2754825 0.096901074 0.024134291 0.28815836 0.078201964 -0.036685724 0.24092376 -0.22510839 0.09547405 -0.13288862 -0.04484407 -0.15367258 0.24430658 -0.25174427 -0.15158825 0.15113258 0.1830786 0.093736194 0.054590773 0.3639761 0.12362473 0.14288592 -0.015559521 0.41725683 0.07493825 0.22394867 -0.14765413 0.114510864 -0.068739526
other -0.27233297 0.015255876 -0.74252474 -0.13042553 0.20607337 -0.25272444 0.646686 1.2379972 0.31902596 0.10876143 0.81792253 -0.091280706 -0.041406684 -0.055096705 -0.09079456 -0.07720869 0.28926322 -0.17315845 0.9745232 -0.63109404 0.18966345 0.2587231 -0.88152903 -0.09358812 -0.5632609 0.6882561 -0.43174088 -0.30947077 -0.2453492 -0.4947222 0.414816 0.16430579 -0.10202173 -0.6161644 0.83050066 0.44295624 0.40121832 -0.49450698 -0.03603902 0.072030514 0.18205483 -0.793594 -1.0368187 -0.05880848 -0.04797375 0.6051619 -0.50397354 0.3224975 0.07260164 0.96851194 0.73768264 0.13144597 0.042787936 0.6735663 -0.54505634 0.24559613 0.15418273 0.5895357 -0.9795661 0.294969 -0.036973298 -0.12268326 -0.07887365 -0.29223868 -0.8951539 0.3584707 0.35451066 0.68435323 -0.59726095 0.15647425 -0.64355326 0.59465027 0.24192245 0.0384308 0.48072037 -0.31334314 -0.6598501 1.1909705 -0.31269005 0.60351163 -0.42783365 0.47504604 -0.50217426 0.2303554 -0.35691187 0.09224523 -0.12822758 -0.0666136 0.7266663 0.53575844 0.06253209 0.36710972 -0.12647353 0.21750598 0.6322162 0.4313042 0.35107478 -0.5825774 0.7803203 -0.15241246
looks -0.22566418 0.26951292 -0.21428262 0.044601418 0.23637977 -0.16374727 -0.088714525 0.72603697 -1.3896123 0.26351115 -0.78419554 -0.30567864 0.29850915 0.30935767 0.290929 -0.6805769 0.16113386 0.28540474 0.45587796 -0.94768023 0.798812 -0.54752874 0.03499253 -0.6589315 0.29047656 -0.2128844 -0.4069253 -0.5454272 -0.13891633 0.26969847 0.23043187 -0.37697396 0.038698193 0.0779381 0.06960781 0.57908 -0.2790293 -0.0033373851 0.29971877 -1.0202154 0.30526367 -0.67601067 0.122339465 0.35292763 0.055678025 -0.09926263 -0.56425804 -0.7385881 0.0817223 -0.42807084 0.023907065 -0.46630165 -0.08240879 0.7024595 -0.70606166 0.13233618 0.1515379 -0.5598355 -0.498442 0.011846409 0.23201616 0.012825922 -0.2435353 -0.009098913 -0.72355723 0.34245262 0.76860195 0.6404624 -0.70058906 0.34252805 -0.9503149 -0.3489382 0.16400652 0.06260415 0.29959658 0.24160358 -0.11170441 0.31216142 -0.05908071 0.19828717 -0.013166665 -0.06251986 -0.682225 1.101004 -0.0012850363 0.37662348 0.2594723 0.3585114 0.6709901 -0.32459462 0.06500022 0.012693356 -0.508168 -0.040843047 0.32423705 0.6431748 0.29857007 -0.38389552 0.7770647 0.27935016
hey 0.14257868 0.2141727 -0.04405248 0.006393447 -0.12868074 -0.3753561 0.4193807 0.70055354 0.11174327 -0.3795123 0.2950189 -0.2293631 -0.18229507 0.014897134 -0.16874427 -0.012695511 0.20740233 -0.19257626 -0.43363804 -0.3191117 0.119581595 0.49054137 0.2718773 -0.10172529 -0.08987474 0.029313179 -0.17511776 -0.19276227 -0.49578255 -0.01701722 0.06431336 0.171002 -0.01091058 -0.9630121 -0.33578125 0.14181967 0.14831315 -0.49956527 -0.3829995 -0.07953147 -0.14090092 0.14555992 -0.04225241 -0.17092746 0.8939778 -0.035598002 0.042393636 -0.15044282 0.39621282 0.06403852 0.31397703 0.105658785 -0.21009229 -0.37922168 0.24965864 -0.19863893 -0.13989566 0.16054983 -0.3461963 0.013803073 -0.13735169 0.15184775 0.16688794 -0.23173074 -0.11750512 0.24541415 -0.14966306 -0.009480856 -0.44628993 0.23092596 0.2095452 0.34019926 0.08808778 -0.07628451 0.52242464 0.18075758 0.19989721 -0.0019452856 -0.33878067 0.020806354 -0.40895435 -0.023062762 -0.09235925 0.1573119 -0.2558049 -0.2551123 0.2174097 0.32104173 0.054788604 0.121296875 0.64759654 0.26521277 0.39903232 0.071533345 0.6573435 -0.10025212 0.18693185 -0.02112297 -0.11408752 -0.19521189
down 0.17285557 -0.04809066 0.0591632 -0.07291567 -0.24179856 -0.33153722 0.15370724 0.46013454 0.41587234 -0.15559417 0.054970473 -0.401463 -0.40913114 0.16405469 -0.15438259 -0.075677566 0.16125882 -0.62325174 -0.47071078 -0.43533885 -0.018951995 0.509434 0.5057533 0.2714306 -0.10160541 -0.0781973 -0.36151582 -0.2270092 -0.45873198 0.14250402 0.36149976 0.17463079 0.1192129 -0.8977785 -0.37640136 -0.0819107 0.10653974 -0.5446933 -0.35550332 -0.18953927 -0.34574053 0.037668303 -0.0022329842 -0.20041436 0.8097341 0.20831749 -0.24101432 -0.39075053 0.72330254 0.033971556 0.168682 0.112135924 0.078127556 -0.18172683 0.1960519 -0.06671986 -0.005234693 -0.26895756 -0.2352376 0.33118138 -0.061902467 0.10785289 0.25651014 0.044336073 -0.18469477 0.30227688 -0.30193362 -0.2866829 -0.38245863 0.29756504 0.450263 0.40198234 0.24322297 -0.27222767 0.31031924 0.030575067 0.31939024 -0.26155314 -0.09003534 0.09581033 -0.45383987 -0.47098288 -0.18944879 0.06635039 -0.2488277 -0.11958317 0.04584722 0.52959275 0.06806553 0.25223538 0.7081929 0.27868772 0.3532686 -0.039857045 0.553642 0.008048621 -0.24521609 0.3323788 -0.31903145 -0.22039995
going 0.038476035 0.17409587 0.07900586 0.25451177 -0.07165113 -0.114875495 0.09583773 0.6750631 0.0402699 -0.18278983 -0.03124298 -0.30827376 0.030284455 -0.020293768 -0.1814067 -0.1665994 0.083581865 -0.3514832 -0.029917235 -0.47502545 -0.055503458 0.031803552 -0.2298947 0.11934191 -0.039844275 0.13572443 -0.19477792 -0.2202546 -0.39427182 -0.042309333 0.037765916 0.20225938 0.009150686 -0.2652717 -0.12912188 0.4334848 0.058239914 -0.34042248 -0.058617525 -0.30860165 0.028747808 -0.14794092 -0.06448753 -0.0603357 0.30285078 -0.09469577 -0.29750565 -0.035063595 0.060289692 0.23323286 0.19026382 -0.12748948 -0.022749338 0.03252656 -0.055613022 -0.06290532 -0.13553831 -0.014648209 -0.44838515 -0.050054498 0.28769198 -0.022298103 0.21177652 0.00029561538 -0.19879627 0.17331837 0.3095765 0.3170199 -0.35442778 0.14655358 0.00053514366 0.27209577 0.033765636 -0.16359696 0.5283334 0.23442294 -0.11178547 0.1438784 -0.086266585 0.07939545 -0.1839652 -0.029102078 -0.17950992 0.28778753 -0.024270015 0.0610854 0.30166808 0.21322416 0.13533744 -0.05579302 0.62710166 0.37779865 0.02737839 0.37247172 0.44041467 0.2574947 -0.03087733 -0.1146725 0.2667065 0.05151159
did -0.21614818 0.16592382 0.06831643 0.21735458 0.20415865 -0.5157958 -0.11759393 0.7996555 -0.36954004 -0.18149811 -0.2054322 -0.63198286 0.10058885 0.3537946 0.13770157 -0.20698215 0.10632385 -0.0044637546 0.1377456 -0.46131116 0.35452288 -0.1667338 0.15309517 -0.18027836 0.22068724 0.11227553 -0.4616299 0.100069225 -0.2101442 0.17458548 0.24015573 0.03989121 0.012390261 -0.32818082 -0.14913788 0.22732519 0.0788971 -0.25539348 -0.1595458 -0.3854035 0.33930683 -0.3375626 -0.026852973 -0.010668814 0.21255067 -0.1976418 -0.026191708 -0.24254939 -0.16183339 -0.12818329 -0.13379781 -0.6076737 -0.06941012 -0.029995812 -0.18894564 -0.059399486 0.11643343 0.0031395797 -0.13524756 0.0066028503 0.22651406 -0.10773258 0.13565543 0.014378001 -0.14338927 0.42136016 0.5373433 0.5061254 -0.47862974 0.4196998 -0.24563122 -0.13364005 0.18886952 -0.029860307 0.36880204 0.041585974 -0.048931997 -0.15148333 -0.3073864 -0.26136184 -0.34224752 0.09256902 -0.28920102 0.43042058 -0.055487644 -0.1694423 0.34850782 0.0017271724 0.19599482 -0.35508573 0.2945053 -0.38977012 -0.22358881 0.087533906 0.26321873 0.37235627 0.49943292 -0.19988367 0.17539583 0.07962263
